[[[-0.0923257376616,0.224690873594,-0.330512996495,0.0294026035656,-0.130303124311,-0.156362282927,0.231819385837,-0.460085404257,0.0895876420059,-0.402016998498,-0.157850197653,-0.371044887807,0.214111615912,0.0426596225116,0.226802347044,-0.200172883016,-0.0557486973668,-0.00979089533033,0.297707009651,-0.181505508408,0.487581647733,0.446160854781,-0.472348852587,0.446099631052,0.152928232297,-0.18567849422,-0.186433357928,0.0425484412239,-0.252451595357,0.216650711577,0.119590683533,0.385363326994,0.0495811217026,0.473478920233,0.0434181756935,-0.17192792376,0.0635659105419,-0.278091933732,-0.131238559505,0.470168587556,-0.173328707527,-0.481914260759,0.308746707072,0.471212057742,-0.383432671417,-0.405474447517,-0.413216017704,0.425643762255,0.0937718906892,-0.406295830465,0.37193750525,0.176717252548,0.346479264312,-0.0423541865371,-0.247431401735,-0.35794151571,-0.098992073739,0.322042283627,-0.135198042005,-0.257536652816,-0.433169645196,0.178810649044,0.0695757796967,0.0943774673304,0.314538714803,0.075256896754,0.0831398834713,0.225361351511,0.0410824759727,-0.0971156655025,0.28805347513,0.0349834127399,0.110387604387,-0.148657527204,0.0702795124283,-0.109714088756,0.0063408029334,0.338356454894,0.132899568242,0.357646255843,0.0650384576936,-0.250169042745,-0.466611898821,0.359693649941,0.257029051901,0.314962370784,-0.101632600581,-0.251119025014,0.395141180382,0.194890049679,-0.234825952829,0.414336703533,-0.0923598978605,0.305023262592,0.409551461533,-0.119798864914,-0.318478648627,-0.29736305589,-0.323455534266,-0.235165629569,-0.108940337291,-0.315119406476,-0.00074320510707,-0.476586295982,-0.360166150146,0.185906334868,-0.372993084142,0.0558663991627,-0.126068406058,-0.283179293366,-0.0889715188306,-0.0413813447516,-0.0289635985129,0.198749045959,-0.204995383442,0.179260125952,0.215112744856,-0.465206583252,-0.28908682498,-0.251211020177,-0.0478527294488,0.434997281047,-0.394750477174,0.153983966292,-0.0140745043979,0.353727294219,0.120040062138,0.231176215117,0.492435891697,-0.387499500028,0.202404109588,-0.234797171806,-0.0135672252141,0.331501352953,0.470286760532,0.0653082461926,-0.383803678583,-0.345911368977,-0.319070398423,0.227935211584,-0.220482058249,0.397263956228,-0.179225294324,0.090445210628,0.487466606021,-0.419411094459,0.497918166886,-0.277583290318,-0.133032788281,0.0795927382074,0.325999887823,-0.0271296721952,0.449898345097,0.0995956659935,-0.392327511623,-0.328904690536,-0.369583278096,0.257935869274,-0.37158564544,0.317308908649,0.370294475351,0.28565177137,0.0355491174316,0.347373387987,-0.000433089755542,0.458939337014,-0.120238985945,-0.209949065955,0.252399104882,0.0143173282466,-0.338293769671,-0.125966582404,0.30375382987,-0.211551242566,0.384020708543,-0.116208475691,0.363105738618,-0.327880136805,0.474001518173,0.244621825432,0.379145451626,-0.0999046220649,0.479891133144,0.235466668225,0.16929504195,-0.304105074398,-0.48666036254,0.213311529051,-0.0851627647916,-0.314641216694,-0.00630614609762,0.4357660562,0.43133423912,-0.38395600914,0.285821008745,-0.0213690079676,-0.0143275368012,0.143466621959,0.285462912311,-0.206074678292,-0.0697300782571,0.126799505193,-0.406455730122,-0.16192589487,0.421693125418,-0.1137009083,0.211157659511,-0.264147019584,-0.055606177747,0.176435676908,-0.109341494074,0.38135480795,-0.323106578537,0.332346866792,0.275242859403,0.151120754839,0.326962342966,-0.478723574456,-0.198226129863,-0.132185207371,0.459814909085,0.386417103251,-0.101485756825,0.335498875253,0.110631818883,-0.358173946992,-0.0498390032166,0.260881536666,0.164186037032,-0.235460922777,0.0609955806849,0.243929693509,0.435671043241,-0.14538724743,0.0882851601991,-0.0940948711757,0.184631541941,-0.474824890561,0.0331836252993,0.450604746364,-0.33210322788,-0.0510827969184,0.0554931818409,-0.221492933268,-0.361089915159,0.204913098901,0.135464064461,0.313931144802,-0.26252371395,0.261287565735,-0.0988729172683,0.0780763322053,0.0836857722043,-0.492865805736,-0.356470818705,-0.0831483613617,-0.275355351198,0.0541002117842,0.12396492477,-0.347438099262,-0.301319694579,-0.483354572407,-0.203322991226,-0.469965998982,0.321986461428,-0.38116332439,-0.476147050689,-0.0174813990903,-0.282098957302,0.202870983661,0.45294608689,0.0522710401958,-0.152153687531,-0.0632804317501,0.494693295978,0.235046755324,0.210285476142,0.296954737522,0.0371047375767,0.266522074465,-0.383355652123,0.368043116407,-0.398828379344,0.14353604846,0.0949220375387,-0.32445747992,0.0557179183163,0.0512701764555,-0.2266729653,0.115693319451,-0.338805323504,-0.138693841797,-0.135265462559,-0.336084414616,-0.074324300386,-0.0413847168762,-0.402081295282,0.474346710347,0.0016858704861,0.448322352819,-0.337096154448,0.408049808677,0.0780295903231,0.109236459192,0.190021257961,-0.0712676014662,-0.137156293983,0.470565266923,-0.0298632538311,-0.0440917145525,-0.392871331569,-0.32142958302,-0.1677117808,-0.451985745194,0.217524371608,-0.365984561676,0.406051150687,0.138068264676,-0.373419516923,-0.118153868068,0.0453887890417,0.0707306988605,0.0405681579394,0.308254011388,-0.00206031230495,0.37537624951,-0.468433871388,-0.0513699357643,0.0344501320758,-0.333280388362,-0.309869567458,0.179447554715,0.262324425245,-0.368635100703,-0.218121416728,0.128698060975,-0.273067323282,0.343982226531,-0.277527674833,-0.182493215058,0.495054193845,-0.0549013628609,-0.346526793177,0.119821927264,0.109113721981,0.187241270359,0.31930647041,0.472335470419,0.375485669671,-0.237220669899,-0.112527482284,0.00993650726218,-0.145694272328,0.0648915135349,0.0652729488332,0.34917022825,-0.212966528327,0.445476386945,-0.000649296113742,-0.440500553177,-0.169592872518,0.0762828621393,-0.36081577226,0.160122064947,0.496798010442,0.452641309292,0.366921013175,0.109275310042,-0.0354946759726,0.081679573206,-0.138910436208,0.12917859782,-0.0840541933728,0.0138733118489,0.242050989538,0.130368790944,0.175562197887,0.00231654104836,-0.197603890013,0.152417240375,0.39844910722,0.18446474288,-0.30579952091,0.121672160936,0.0605894750853,-0.423874692795,-0.289117422845,-0.180262963074,-0.0582261645936,-0.121253916429,0.261791212173,-0.0370218803898,0.0658339622788,0.344070372653,-0.0201889892476,-0.354401671129,0.235149701344,-0.236071719321,0.476053593667,0.00398102142979,0.0932975792325,-0.107833955439,-0.129948439781,-0.364909657801,0.388559602969,-0.129850284764,0.479860089723,-0.29963196402,-0.210399718064,-0.232560716913,-0.194857215184,-0.034108553141,0.0185837620509,0.151467226074,-0.133877094213,0.440206925816,0.0863733800396,0.336878631921,0.22996695335,-0.490498135318,0.466807424116,0.429536575324,-0.137061481893,0.23305780181,-0.12089707906,-0.465493893485,0.369371881387,-0.464978421344,-0.115360368536,0.0766529915414,-0.48673926466,0.0338652016051,-0.181748457117,-0.479892236673,0.164871063396,0.213841629107,0.37426200925,-0.0490549889889,0.0723408448743,-0.437408812687,-0.33225071638,0.480397573292,-0.0694663864496,-0.418272114956,-0.42627560295,-0.375688182246,-0.178938374365,0.284911453471,0.12880473799,-0.363919874231,0.328271453406,0.139689297553,0.283436625054,-0.314793649873,-0.0306554906007,-0.270963073047,0.300912173267,0.113419386295,-0.199014726361,0.131921069877,0.283833670187,-0.288425847261,-0.301692712841,-0.0679007379286,0.438544380667,0.160707751412,0.369347453496,0.428700015277,0.300877523476,0.172396124949,0.355347710284,-0.111227857407,0.430126401565,-0.369541279923,-0.158940023256,0.334822283721,0.301707126799,0.496710806424,-0.34494315918,-0.396200122552,-0.162024280001,0.0534656827354,-0.113457463999,0.214161402125,-0.116558320243,0.422120656125,0.491150798963,0.458050870522,-0.0690813964292,0.315929325703,0.268643842977,0.257243065718,-0.177275209299,0.463302178186,0.388072420468,-0.420884240932,0.475968677873,0.426312830656,-0.197716055386,-0.261495824932,0.0578993192812,0.327360315865,-0.183664818338,0.177235895384,-0.144762793271,-0.228414030214,0.3492778633,-0.0225454070501,0.0729274731999,0.468481114302,-0.16306840916,-0.350784345547,0.418577585375,-0.176247488801,0.0908466003749,-0.0575520136618,-0.172563050712,-0.463459977352,0.238464255507,0.0753037198034,-0.0148467957698,-0.121494951303,-0.366534212065,-0.476084792026,-0.499566899125,-0.317454295263,-0.124551952434,0.341134386596,0.0909828134491,0.390861467297,0.387445064584,0.328163849346,0.284769920165,-0.485931145228,-0.0714757906822,0.356169491975,0.388971352067,-0.403337254339,-0.106474910618,0.0174473170708,0.366015238629,-0.409130995835,0.15997144423,0.268396443429,-0.0642879368927,0.0950898459544,-0.39258078689,-0.0890301190173,0.174360609019,0.286695089817,-0.250255877318,-0.225210321213,-0.448620144418,0.0556909453487,0.144611687602,-0.020831262089,-0.408231145942,0.377601102349,0.41896963817,-0.192526374567,0.401595226808,-0.483964662885,-0.0455141081345,0.186310632087,-0.491810586197,0.477279252616,0.495128392162,0.334979055481,-0.422364758834,-0.105517391562,-0.34892195754,-0.166932155664,0.312158484091,-0.458256257053,-0.372371742336,0.361200207208,0.0209946414963,0.128756964979,-0.0754353793403,0.426353850407,0.0929450248711,-0.196474552809,0.0998146163342,0.27457196964,-0.342261845384,0.35993341792,0.174672088874,-0.11810504417,0.427873744287,0.0214233169082,-0.277579986837,-0.363499901109,0.253564805281,-0.479066779051,-0.0346310495846,-0.221685884004,-0.166045616292,0.273062979896,-0.203030583145,-0.420303898804,0.122218991758,-0.0462737112595,0.173995425152,-0.342016844976,-0.051282135831,-0.485238403463,-0.104060562993,-0.0246508570458,-0.383144674522,0.308632731335,-0.467553219327,0.2425891629,-0.475136814976,0.352451310373,0.192101463975,0.410256078366,-0.320834416832,0.0294832422445,0.0936909641972,0.224705469782,0.0691612549862,-0.0998366355144,0.182083715234,-0.486954311885,-0.160097474847,-0.0977151569332,-0.230733621285,-0.092446847788,0.365576858569,0.393819956633,-0.389520081072,-0.424338936035,-0.25811117404,0.331611644,-0.473704778565,-0.465043633057,0.22758100929,-0.106090865663,0.463447961229,0.416513827799,0.274269375997,0.123808462393,0.0362706418209,0.193390497445,-0.106923556486,-0.062722331878,0.0987072382305,-0.14679555515,-0.458119219615,0.22767640639,-0.196600085773,0.28132674223,-0.0451637842838,-0.390891911288,-0.313733154127,-0.197654780363,0.104403650998,-0.171846797444,-0.267415341702,0.365771478365,-0.0232247091735,0.412080814111,-0.312730969878,-0.185775962563,0.162205779249,-0.134475014667,-0.370343979871,-0.461550727937,0.281589119477,-0.326249713477,-0.499073972333,-0.24290665364,-0.133375942874,0.241847123417,0.175070807958,0.252271879277,-0.137433805505,0.0379756672048,0.40279461094,0.421647211986,-0.307687059234,0.447233256457,0.449941435611,0.0412019260646,0.490184003423,0.259042163733,-0.450700329947,0.121717589917,-0.0235110270147,-0.0284618406911,0.202547221928,0.0929142823987,0.193857447519,-0.379245436493,0.00655230931826,0.144414829706,0.402339955358,0.363280083931,-0.289086989532,-0.140375273073,-0.126986027537,-0.329016375254,0.187954332908,-0.0298749889501,-0.272026477601,0.358019007215,0.194457229961,0.163822537291,-0.445083613752,-0.0771762919366,0.396001885932,-0.321264933615,-0.00810044646788,-0.0975929894921,0.291610437471,0.121647835599,0.449279277375,-0.295521555184,0.333138415531,-0.261732925357,-0.468268358024,0.0866647040306,0.2573556509,0.163278079989,0.0880252442045,0.366531702393,-0.23110894765,0.0207593188761,-0.0445643234944,0.0118302378335,-0.201206666824,-0.0117688927124,-0.304283065741,0.399087156861,0.147385167151,-0.269964322256,0.413740934877,0.109772333425,0.0870080882197,-0.10830695166,-0.497006666332,0.0736226092067,0.244316679941,-0.371394009645,0.353084471984,0.272816676629,-0.18894745239,-0.239331463901,-0.16791023912,-0.00411318393348,-0.307958807488,0.308969170696,0.020627019498,0.122848668676,0.0938759253127,-0.0209812263149,0.0304257034635,0.303324767483,0.30559962849,0.373115337623,-0.484683541201,0.481112600014,-0.470989841288,0.0736221291192,0.175034222216,-0.411330861279,0.0852605840623,-0.086315210802,0.0309916262658,-0.260232099446,0.120043947567,0.472290222661,0.21247996891,0.195058492684,-0.445223823183,0.313565724133,-0.253198238815,-0.430244479202,-0.367485217577,0.396074550706,-0.43369712232,0.0925938431125,0.462283864519,0.317660404889],[0.114516111181,0.433248809067,-0.126970982661,0.335861528965,-0.399553068894,0.242085707363,-0.470553901008,0.269874747463,-0.443338448028,-0.174139003544,0.259457004016,-0.120760067214,-0.0343560650867,0.479051981206,-0.0297406247472,-0.140092603021,-0.217000473665,0.322262473007,0.234427847374,-0.0251161586327,0.0434001728564,-0.459300074053,-0.256011809974,0.497204624045,-0.366328577233,-0.495628187489,0.174006444797,-0.430500238504,-0.438014494441,-0.0707686914574,-0.100726701339,-0.435043570523,0.296094927592,0.17456463588,-0.0517073426899,0.110051420032,-0.277008251837,0.417831761518,-0.383694903889,-0.238719872895,-0.359048242871,-0.354040182938,0.216916505152,0.493147768171,0.172440118828,-0.378986068952,0.0434770817005,-0.338919112916,-0.240398127156,0.0762663310173,0.0484327477585,-0.084556328971,0.19575311465,0.486530570901,-0.32517455715,-0.492209279323,0.435858348975,-0.455154592997,0.277778662919,0.21278961517,0.242754219837,-0.205256772311,-0.204979195813,0.0557074920768,-0.384892959624,-0.197582003945,0.37936056646,-0.0292110815597,-0.446265044274,0.288441931722,0.121098488333,-0.229005905209,-0.367863157681,0.409328325647,-0.453689328402,-0.174091420189,0.340365926255,-0.448505660249,0.0725514441929,0.22001997594,0.143215389368,-0.0600426203331,0.476779139069,0.403334800458,0.220899592692,-0.418837564497,-0.202303081314,-0.0425497774449,0.27708805783,0.412959838388,-0.286267341356,0.413391868279,-0.0756021586035,0.261431295798,0.354320196411,-0.0315290199002,0.431294210475,-0.471772890568,-0.37506976854,0.186756492215,-0.351968164443,0.0184297230986,-0.249140511133,0.144026282502,-0.0934399852197,0.0448215830247,0.0168084439824,0.216012292601,-0.0228261706094,-0.0815936264443,-0.420704014057,0.452215913153,0.438388239661,-0.327721334241,-0.369132788367,-0.0780825410566,0.0311874489959,0.0802309028238,-0.429432668361,-0.499310534725,-0.196807937519,-0.237443426656,-0.127433159871,-0.464728614637,0.0185608640755,-0.406631281782,0.0430061254846,0.494961261168,-0.253175496237,-0.17200165269,0.0731128595149,-0.334678868822,0.239789874316,0.425169134672,0.00242269767954,-0.251639896289,-0.0359960303992,-0.217028621711,0.36749762054,0.187501879078,0.267434660878,0.008593908811,-0.108799448159,-0.358061150993,-0.351409544975,0.14737502745,0.468652375869,-0.114279632176,0.366546576185,-0.439015391586,0.190386778103,0.178295175423,-0.103774061991,-0.00618823427468,0.299137175342,-0.440112342003,-0.384186879586,-0.253541818825,-0.376563782796,0.139798029648,0.391999766062,-0.30564487888,0.271714860966,-0.42775910208,-0.116710842011,-0.413446814631,0.0369008803625,0.331171593599,0.363973371304,-0.217898644872,-0.397647229329,-0.395301810775,0.190385799594,-0.36274091841,-0.123578906407,-0.147692639687,-0.185333461733,0.394056652999,-0.356562225823,0.0979968845468,-0.410777468066,-0.255779128085,0.142293942509,-0.013838706019,0.202224450236,0.395283505694,0.28419190989,-0.334210105303,0.0252749536796,-0.0239991571668,-0.424409421058,-0.0453160611037,-0.167274020346,0.462513503878,0.204769483122,0.192495230312,-0.35954165164,-0.173822132544,0.17354329922,-0.00851626859673,0.165122974447,-0.197581390502,0.37705797418,-0.362002963658,-0.401895854561,-0.23580136282,-0.0745300689814,0.270637189237,-0.0863168985776,0.242824066332,-0.0093720079399,0.323101227943,0.3998914096,-0.111891019869,0.248030519636,0.190391222854,-0.137846772376,-0.385076331314,-0.115958480525,-0.488096921701,-0.0704657239917,-0.18835625365,-0.318062031291,-0.239943650278,0.286240171234,-0.00901622938282,-0.0424864796011,-0.339644435347,-0.317939801748,-0.0409177843733,0.0714826930305,0.460624918715,-0.0418998622023,0.202977484205,-0.172148690142,0.304475360915,0.435450404772,0.189887095378,-0.185715177001,0.441865513842,-0.207169970977,0.114771116938,-0.298115260823,0.140616886012,0.138974104568,-0.308870482961,-0.467545151838,-0.0564092236578,-0.110050341533,-0.490083267266,0.46358846861,0.0996986397418,0.366689567515,0.30083300164,-0.30034807049,0.452858757617,0.459400958773,-0.171264013615,0.197020369001,-0.40528139345,0.147302104341,-0.370063971403,0.439674130785,0.0745223382442,-0.177079079252,-0.251725899787,0.0757177972706,0.457271183524,0.0773966230814,0.199784615675,0.188151641654,0.310698850129,-0.496963579705,0.040031381316,0.251891238801,0.0503660284035,0.335696617832,0.113920424833,0.472031278022,-0.261948444517,0.325744812637,0.013270952538,-0.161181102108,0.343312067552,-0.248512095278,0.027654592663,0.142365720419,-0.23235931091,0.0734973179019,0.32944462256,-0.251608391866,-0.0433590027123,0.0845916888401,0.44155003709,-0.463598454527,0.461343587162,-0.0964365417411,0.328381467005,-0.020718567858,0.188454309204,0.112710444389,0.451036934941,-0.0644312491134,-0.268027710883,0.444447259159,-0.236836626118,0.287681286881,0.174767070762,-0.120306377234,-0.189791863598,-0.157888157214,0.180424939851,0.249727160728,-0.039535785401,-0.29556847534,-0.0442865267606,-0.041225005932,0.268291078731,0.0914143797396,-0.0144209724964,-0.370102239055,0.0706862832335,0.276677531368,-0.346031803659,-0.354249249598,0.451573876935,-0.37385447923,-0.274379523328,-0.204032392398,-0.0445519920078,0.230087759591,0.108386444717,-0.142837556144,-0.114885994953,0.226920404825,0.081705901421,0.291578789681,0.305596036576,-0.0967295984922,0.357965875834,0.416280998584,0.412967076177,-0.414339945813,0.0301527326601,0.310053761622,0.0863777545287,-0.349770925504,-0.326317176639,-0.342358987937,-0.231017243838,0.228332648774,0.169442739416,-0.434874234429,-0.479114943535,-0.477276252065,0.0337246195841,0.0500026828924,-0.469587641521,0.137253915468,0.289425443166,-0.289768388763,-0.309955299342,0.0757246218312,-0.205319422497,0.12026184299,-0.448125071227,-0.288897201508,-0.0188124933624,-0.495440893049,-0.472772802729,0.179203971548,-0.0264517730124,-0.499138273303,-0.167307620832,-0.428368616541,0.166164869572,-0.299190442269,0.498476403177,0.113327549157,-0.096614830528,-0.471191803007,0.152213903797,-0.260259231888,0.0458546152133,0.311836049861,-0.226941379127,-0.252714134494,-0.383880602263,-0.294373746208,0.00329326177345,0.0095320640897,0.276776130225,-0.370400175444,-0.0352555302312,0.426018099587,-0.0372889574032,-0.193713338254,-0.0642713839566,-0.347282915621,0.244035811139,-0.271616231265,-0.479282760511,-0.27964310791,-0.284010735944,-0.0720996072286,-0.0369968331237,-0.099449231861,-0.393486157124,0.271206385611,-0.157836327584,0.294225097046,0.0698601924533,0.217623529222,0.388912547954,-0.164416478839,-0.0629513239178,0.0207956622741,-0.294312124405,-0.0144343198377,0.278071132765,-0.171754901815,0.42863514784,-0.242547753721,0.391710069717,-0.337984872517,-0.0646871995681,0.212291041224,0.206293395691,0.142030230138,0.422071842243,0.0665032090157,0.226039966056,0.0108085716661,0.384333640925,-0.49797452669,-0.434601417332,0.459868957257,-0.122527120359,0.300471776264,0.123760052764,-0.0883817929663,-0.445576348514,0.470513246556,-0.119369036931,-0.283311462025,0.189044052506,0.49971641128,-0.298264144891,-0.411849089425,0.448440836058,-0.129004064289,0.055248408489,0.152538078342,0.182030813497,-0.440026613909,-0.0151163753076,-0.459201883769,0.163963277562,-0.20351904593,-0.0970385207207,0.406685075891,0.436652031162,-0.376582558942,0.407028800153,-0.156711185568,0.470735899515,-0.316570338039,-0.133828080869,0.184886671185,0.13484606897,0.293193864135,0.460034875053,0.363171179664,-0.330952193088,0.194051947459,0.271086719597,0.00972894809163,0.380672725862,-0.31460457664,-0.167902057446,0.397320180152,0.351079146191,0.167180117498,-0.487178104462,-0.189386578121,0.0158200642391,-0.311414756397,-0.254198821772,-0.332451362558,0.0810827723646,0.134596577093,0.0032550885439,0.377291745133,0.230181395671,0.0394171305898,-0.136228491196,-0.0743237795292,0.277202626459,0.0935581475304,0.2605202243,-0.453047412761,0.318870559118,-0.30821881878,0.234236947812,0.189375874452,-0.280613124871,-0.218355348892,0.461071649264,0.154244436348,-0.27029899771,0.11910079867,-0.460582300134,0.248418923602,0.323284644926,0.193937284602,0.107020373265,0.159330155867,-0.212303297196,-0.263180391373,-0.276662188346,-0.17439775958,0.306827245076,-0.191343196411,-0.0194463213207,-0.463167268101,0.36992238736,0.148410022271,0.260498123173,-0.172223508805,-0.458017196352,-0.198020688966,0.149676498099,-0.247131027994,-0.232120025718,0.221420666811,-0.209225316291,-0.402134306227,0.119946976297,0.340076513308,0.46135692397,-0.167108897808,0.180997503973,-0.178886468465,-0.201350309338,0.192103822354,0.371712408,0.324422323384,-0.253471463631,0.451388507888,-0.161449463224,0.027704967009,-0.110432670389,0.385281315541,-0.304963401651,0.398764640181,0.122914700006,0.0142396698913,-0.428904550198,0.370723309029,-0.0949394666249,0.194233887835,-0.0129238208936,0.456028851696,-0.247140863343,-0.430462035068,-0.0740549149981,0.276228150003,0.489496578608,-0.380565350009,0.163846431912,-0.192099143431,-0.42741838358,0.156618611222,-0.102963814363,0.403643971327,-0.414733614632,-0.0648407308988,0.125538883079,-0.213023290019,0.169361096118,-0.22533407512,-0.295260353841,-0.0234854080569,0.307778567649,0.472640812956,-0.250126844635,0.375992628182,-0.360361160335,-0.466112962133,-0.222694637583,-0.106727381063,0.442632080076,0.312813985558,0.259908964337,0.098980142997,-0.489148412012,0.316837845288,0.360385379375,0.456154398997,-0.488303805136,0.264960089828,0.374168913631,0.047026107702,-0.343890994656,-0.38052681888,-0.299480379313,0.0808176145193,-0.196679572575,0.44553609689,-0.246025101774,-0.472868287749,-0.0732032690377,-0.195190749612,0.325621053706,-0.286592227188,0.0272941718902,-0.0421844011363,-0.486765959697,0.473992408304,-0.366601940541,0.165271821978,-0.133302306991,-0.00864055577437,-0.481992490871,0.0103617171301,0.321117114892,-0.193948854405,0.151391830129,-0.481603253908,0.139458421641,-0.0734837770893,-0.175992883406,-0.218306590439,-0.153322593391,-0.31320109869,-0.040601192075,-0.486582319857,0.13903032913,0.360803692551,0.36964572612,0.182466975183,-0.281211095029,0.00202755650172,0.0337465338066,0.367001273107,-0.423213681469,-0.0911981969362,-0.448233637262,0.0490798448035,0.402678582453,-0.374815303445,0.30349703031,-0.1138358486,0.000691286707066,-0.433453956422,-0.484057909061,-0.0481553686914,0.082784162263,0.313195389749,-0.172488528996,-0.413141573326,0.0330965343049,0.270409400211,-0.311468246065,0.409875402546,0.297817910512,0.112653550355,-0.241785764646,-0.19236600476,-0.213399305339,-0.453255859387,-0.283776872385,-0.124828280418,-0.451518809274,0.35310613856,-0.132055146138,0.198076038959,0.138613758246,-0.211356288649,-0.082954263307,0.431043888425,0.351072805797,0.0759223317815,-0.104515139057,0.0670075063085,0.135036691217,-0.32787568328,0.0138700675481,0.243335350552,-0.185104449145,-0.366785481012,-0.126473027689,0.236846253236,-0.0187242013503,-0.0119038406345,-0.0469372253412,0.426398553222,0.266506919294,0.0103970572354,0.114193172926,-0.185275652188,0.169263598402,-0.422873705751,-0.280933196294,-0.4444929901,-0.43041954786,0.0968799036725,-0.210577181469,-0.29904188062,-0.221237129972,0.348876763731,0.255347466103,-0.240370444827,-0.478086978404,0.422309827217,-0.292423491209,0.352921445354,-0.395988523079,-0.232390265165,0.294750205706,0.289180758226,0.233771042935,0.461571244654,0.287142535633,-0.128211448939,0.473635153307,0.0573845623598,-0.35932800005,-0.228004935215,0.0804682898246,0.378415944452,-0.38878905599,-0.222143564317,0.0951083379437,0.380193104258,0.23872458001,-0.469074254503,-0.22274839452,0.456028892705,0.1042945451,0.26084316197,0.382521329735,0.0668017275001,-0.227126739933,0.366327883339,-0.330332823149,0.327140058859,-0.46939532043,-0.23162703023,-0.0615581690069,-0.264763614611,-0.420399292766,-0.0245990061759,-0.181858841199,0.417905328238,0.0986426554414,-0.084738736071,0.187863196134,-0.262337095709,-0.118523193095,-0.184289715212,0.237907693899,0.380841983448,-0.0769675375107,0.304097356891,0.307829751597,0.465403330416,0.127035587847,-0.468507027635,0.387721057594,0.134568611152,0.413399318133,-0.396265916815,-0.466179103261,0.0534621479799,0.214759390719,0.308785796557,0.150302464467,-0.113802092049,-0.0492858668495,0.188414582344,-0.356171643624,0.16464952307,-0.173559415039],[-0.372446252619,-0.133184514537,-0.203913974046,-0.210111389032,0.295683501066,0.469746133986,-0.489748461818,0.292778998842,-0.0296313601256,0.0863001549189,0.0061425619179,-0.26545570349,-0.384141765209,0.481584743046,0.0716269529,0.349007381664,0.365896884302,0.481417262798,0.406176125986,-0.418051427644,-0.274304288441,0.361922764415,0.269949444124,-0.124352371269,-0.0386691495133,-0.325897626414,0.307007125458,0.122466071837,-0.218727646045,-0.155294896702,0.188140596659,-0.244645723731,-0.013782592177,0.384087522705,0.418851402199,0.304947993332,-0.25792596707,-0.143513204137,0.187953385842,0.236813582998,-0.408271133741,0.476194960987,-0.0254295377452,-0.264415087102,-0.121329508414,-0.360195816655,0.364881538356,0.438452133565,0.28448879701,-0.245483876104,-0.153165914209,-0.294981931648,-0.02047469413,-0.196858142215,0.251575328954,0.0347865110461,0.408794406867,-0.102228675788,-0.237980868574,0.146048230541,0.230256188919,0.28907087899,0.164929030499,-0.358467722827,-0.340738165445,0.0473543970256,0.410092599593,0.337766346501,-0.377021031837,0.448853371439,-0.00220702264043,-0.297143812714,0.409057829961,-0.324445704821,-0.470718397054,0.14590889775,-0.0637268686999,-0.00751938130479,-0.494420516809,0.496407972782,0.188336913939,0.255284061698,-0.0981302567994,0.13218732516,-0.0486695327687,-0.472646351846,-0.127178916652,0.126463649443,-0.313550313545,0.43200222971,0.281250854681,0.166816394225,-0.483627005902,0.107138427916,-0.0188189369689,0.337104862577,0.466497090351,0.387537551374,0.0514369373576,-0.22519345949,0.26385939687,-0.381790315637,-0.389569578141,-0.429928932637,-0.396281826127,0.153580152703,-0.475610304274,0.402130323784,0.203862792874,-0.0484986713307,-0.31276014704,0.31828062459,0.457173389676,-0.263400377707,-0.045496606424,-0.465048511602,0.198063316488,-0.161380356644,0.0391685833445,0.422982362255,-0.0547719974439,-0.147870972245,0.468034961809,-0.204659258082,0.413955062175,-0.377284610677,0.288601709248,-0.195825396203,0.460281722294,-0.257215308307,0.251413631979,-0.498269819881,-0.426049328903,-0.0479330918493,0.112502068143,-0.457135552467,-0.00213883001495,-0.154218845239,0.498854802773,0.268021817609,-0.229924693271,-0.48292119087,0.44946628136,0.0526380417353,0.01568199271,-0.125453918853,-0.212788617242,0.239408634557,-0.444275473875,-0.341769693549,0.00629411103509,-0.318395391527,-0.119515980621,-0.0964558013098,0.473927508453,-0.180547740811,0.308293566249,0.494878711813,0.486068353742,-0.366347062512,0.105015124949,-0.393194422019,-0.315303621976,0.202361942693,0.347319221681,0.245777371895,-0.0580426630773,0.215160432124,0.479819742756,-0.332810579901,0.293231727805,0.215056480758,-0.191435500625,-0.0895203927529,-0.136741939043,-0.116013418957,0.303085222531,-0.14720850556,-0.319357407857,-0.383756498039,-0.33758344272,0.0306040847405,0.34741701393,0.354307504209,0.334653290353,0.321039375882,0.0797641589651,-0.320350218611,0.337829293926,0.0162007681687,0.0540220732851,0.0202656046653,0.329409705858,-0.238102215909,0.175633358629,-0.103990673129,-0.225225169744,-0.406151674393,0.226589463051,-0.0928539865164,0.456210537432,0.287105226854,-0.409920668614,0.242703279276,0.227156502457,-0.432574460398,-0.284948828528,0.450277467813,-0.146365454191,-0.159720701215,-0.170088276402,-0.358517808588,0.25309336432,0.444145400147,-0.218695333641,-0.0279718482359,0.028332971371,-0.201102963333,-0.483874453071,0.112865265412,0.29284481047,-0.314180094631,0.471003391654,-0.196201007352,-0.177933527577,0.205763770195,-0.176894876754,-0.383210060931,0.190408144574,0.452633730513,0.0186455829322,-0.360022735349,0.359742595303,-0.357685247332,0.313850661309,0.492897113997,-0.124965294492,0.170289585994,-0.0089104378676,0.338410518625,-0.43459112162,-0.243144794671,-0.161325126866,-0.0151457417563,-0.433803475316,-0.244570807353,-0.314303881578,-0.481459053543,0.380851606627,-0.335905217088,0.143768744698,-0.152976115879,-0.02322969,0.0525965333982,0.125320232426,-0.179248063724,0.0281721507842,0.462867067916,0.303928113051,0.125613780468,-0.377511676008,0.0158358102295,-0.444695417386,0.391877367192,0.0854949339854,0.163465215066,-0.495134555039,0.225962995849,0.0122429575259,0.184502443067,-0.286611150342,0.073564703989,-0.241366589762,-0.482620516274,-0.413647000411,0.187891006472,0.410287843428,-0.431240472634,0.00439159591431,-0.11321856477,0.0270029952075,-0.358136619024,-0.100952521881,0.0268704650156,-0.287386669989,-0.470169212604,0.130231144449,0.21917447968,-0.0650457880192,0.15095433208,0.187209545365,0.409544809252,-0.136636251206,-0.405995341541,0.0895895356903,0.471627583963,-0.426412549688,-0.409414478356,0.295578453518,-0.207362593992,0.399711923496,-0.244339739765,0.259965086315,0.263456138923,0.408802879323,-0.0136048944377,0.483155586055,-0.119120565286,-0.422226888742,-0.129046872336,-0.131995364438,0.0556052483559,0.102773703083,0.198682326273,-0.15468989278,-0.291353476962,0.142358662677,0.129574464341,-0.365039327588,0.0555092182823,-0.383166502227,-0.217510228941,-0.0842248303999,0.201794562657,0.0392690356157,-0.239185266751,0.325843792742,0.247259030202,0.303401573042,-0.248783086917,0.373559704709,-0.396151542558,-0.44489316412,0.468147724205,0.318168769198,0.278813551707,0.194145288543,0.27763871917,-0.117765046309,-0.141298035505,0.0545931101075,-0.206584932768,-0.484868065106,-0.279452470611,-0.357659458652,-0.497124790378,0.205753059601,-0.2426589429,-0.121043834167,0.232574185846,0.285409380509,0.313772719281,-0.430763736888,-0.225345293421,0.362567086516,-0.0383528180943,0.254358105047,0.0525082044083,-0.445352630007,-0.131868416319,0.0052803286589,-0.0573493925734,0.481105468897,-0.0733338473307,-0.0297767048542,0.161647508018,0.0203476109755,-0.212125069996,0.312116845486,0.0371185204644,-0.130676022705,-0.426736964684,0.109383048907,0.467808414272,0.306188591661,-0.373149164528,0.334297754182,0.109466434075,0.227571037776,0.478310788513,-0.454940229946,0.15652943193,-0.111750410091,0.148578157642,-0.292757325255,0.317633660132,-0.141745575454,-0.380046896909,0.0899538324888,0.268960630422,-0.191762798506,0.203633765675,-0.0624449811119,0.0198056913457,0.237412202667,0.366659903598,-0.224171537617,0.153355823882,-0.375349883513,0.28486190783,-0.4549273693,0.416740992624,-0.496403831037,0.144580039094,0.282380915689,0.437692155006,-0.176653934689,-0.0354087422474,-0.41823201971,-0.0390006004297,0.372816024762,-0.275299740299,0.0756034099867,0.119833941076,0.0453637263284,-0.491649987606,-0.10715312796,0.0846320942001,0.208544259472,0.0223434016499,0.0750881855585,-0.0972159047884,-0.380890833802,0.277895916081,0.134322734664,-0.218423729374,-0.15929974268,0.302716943133,-0.240034355562,-0.361914047133,0.426548064683,-0.00336869742944,0.335093076548,-0.13195474082,0.20087012649,-0.375468563296,-0.070749338029,-0.277874669408,-0.249712369378,-0.332132904873,0.396846702312,-0.367726157438,-0.0832560749881,-0.0394580085442,-0.209185210631,0.453742226252,0.0451201273762,-0.25388758545,0.0235605206163,0.447966767339,0.21443357737,-0.373602929429,-0.269563623578,-0.0270595125856,0.437816411683,0.418245301711,0.211377434623,0.333771800135,0.38778536389,0.101166905801,-0.428533854163,-0.166282551788,-0.017574431678,-0.420675851919,0.184035685042,-0.361194495584,0.00183847909439,0.279146559534,0.133621774651,0.177655913944,0.311391047758,0.317199076028,0.0344627008852,-0.268783480277,-0.169417014049,0.180296705251,-0.479846952877,0.176036374821,-0.00939177952682,0.363096395607,0.370355236571,-0.172443455366,0.263485486474,0.301291557394,0.153246544086,0.387733021722,0.0202183435779,-0.0802242043124,-0.31910975406,-0.170815503523,0.292635214908,0.227563432541,-0.295379759704,0.333826237285,-0.011818370229,0.330875543183,-0.375057971274,-0.396726805257,0.215817666606,-0.435248502411,0.315357627456,-0.0893428568579,-0.00790132095985,-0.494074341442,0.460796138726,-0.171542807188,0.4921715736,0.0729024271742,-0.207305390158,0.122417851535,0.472900313888,0.398898240183,-0.0929575802522,-0.204057130462,0.124384008789,-0.239469519467,0.000766681462262,0.213288837525,-0.034756762096,0.119037288293,0.484183402433,0.0360207089126,0.142968018572,-0.00827574611462,-0.0511178517735,-0.131016894485,0.408744947351,-0.353806422558,-0.478727975931,-0.300991597839,-0.0871828797146,0.00608389332613,0.225848154349,0.0750640120604,-0.130849810118,-0.190853470488,0.0910344797894,0.359152296038,0.0526209540703,0.176900615399,-0.448894242946,-0.450159249618,-0.484582328163,-0.344835348151,0.359143022328,-0.449366715283,0.159515257516,-0.00412872880669,0.487583219831,0.218008963838,0.331142769381,-0.15937509285,-0.309030884299,-0.0784871863837,-0.0456802251453,-0.176275333635,0.164354652501,0.440763310051,0.364643886682,-0.375059724055,0.35252038917,-0.393725709935,-0.117478967622,0.133167009289,-0.482751830363,0.445620988129,0.443256799254,0.00394535522832,-0.247919972994,-0.416811780304,-0.121542685111,0.161177545641,-0.278680265103,0.481196041031,0.252230785751,-0.463605275453,0.100743350347,0.0991444613763,0.450469826432,-0.253328676622,0.376717340467,0.227841920381,0.416957326424,0.431300183854,-0.455995751052,-0.198901467782,0.474025915559,-0.471745538609,0.417385123997,0.00553403389176,0.120494570317,0.333085743649,0.316265252394,0.492606313555,-0.112642680708,0.22014768303,0.264762145666,-0.363185411598,0.427264144034,0.182186996188,-0.296985186981,0.413026093325,-0.247490596626,0.363450088107,0.105152783541,0.318999446145,-0.0780533935047,0.226098916054,0.260622195794,-0.394812745197,-0.180798990271,0.395224949545,0.238817242179,0.303574909437,-0.383290545588,-0.450796094295,0.176739742679,-0.303081401923,-0.156758793966,0.429822114056,0.238136715362,0.446843456488,0.0994617341751,-0.300126847262,0.357276487404,-0.0479310781872,0.0324083343211,0.0789626870136,0.0235954792506,0.0660158868755,-0.0949721866053,0.394204657066,-0.103778465542,0.355339689117,-0.452080585496,0.0827552926941,0.0937606883833,-0.0641479825052,0.31159136111,0.33378814656,0.250613214845,-0.137027400522,0.43489333065,0.437572161333,-0.304086094346,0.410471378007,0.467339008134,0.203744712007,-0.455684764835,0.458623081364,0.142132377721,-0.243015113145,-0.189185214278,-0.102457748919,0.108863013883,0.429306754851,-0.474999194873,-0.412173640615,0.163807929585,-0.483419207301,0.381422670491,-0.39388319093,0.168439567449,-0.0232509672891,0.426929154182,-0.250014089867,-0.0592950179598,0.00461337317589,-0.189576018503,0.044532526921,-0.30629931276,0.244387598219,0.321495924924,-0.124229073847,-0.466332715976,-0.204915540715,-0.179196252993,0.201195219025,0.390072150854,-0.499632724702,0.147755298086,0.387638889999,0.301453187784,-0.467424278103,-0.0322633610214,-0.19416906991,-0.477478177004,0.492701914322,0.322962249039,0.164888908987,-0.0614450053229,0.383363677018,0.452411207973,-0.430644656097,0.2312542413,-0.158554538568,-0.34074491187,-0.438006175532,-0.287108632598,0.359610936353,-0.404104745303,0.0891051821376,0.241658182316,-0.440858475952,0.316588644649,-0.143888333488,0.398283523024,0.450261549785,-0.00562258530688,-0.255802231981,-0.362606351529,0.0423150917121,-0.0610664750541,-0.409077289318,0.425999520318,-0.0475916653111,0.392216007687,0.242551362098,0.233409260727,-0.274407897055,-0.23528321017,-0.30009428393,0.416597644257,-0.467912217712,0.198387598304,0.0281845989808,-0.105589446343,-0.0590903994193,0.0989105282196,-0.163330154053,-0.181262252707,0.439620293586,0.408143872772,-0.297101765471,0.0827065458987,-0.436431171994,0.335253462532,0.474561879314,-0.276779780336,0.43460174854,0.315379034427,0.485138881168,0.21050539452,-0.27412620242,0.497757989323,-0.293865610109,0.153395613972,-0.269791597182,0.42427029854,0.454424514617,-0.292512353416,0.011105375082,-0.276264272352,0.33337250508,-0.284966199329,-0.430899429615,0.108276321832,0.476199655012,-0.453845317303,-0.25583403768,0.246333635709,0.407568509183,-0.255788654705,-0.267225902661,0.450926496301,0.0751279936035,0.485945496833,-0.035897696711,-0.0716268940688,0.145281692703,-0.141729060013,0.384822115227,0.365356852455,0.00837283618312,-0.0424943094405,-0.232636433907,0.0652445878635,0.251943254735,0.327944431161,-0.105403714452,-0.0660309364147,0.118336071697,0.317411586112,-0.322440715992],[0.243315100108,0.324077910724,-0.174382469031,-0.101394045728,0.0818659251434,-0.102665100114,-0.459549083674,-0.276165111781,0.19928797924,-0.198216751558,0.166579813015,0.255922808751,0.259637954003,0.315593277221,-0.15435913918,0.113860368324,0.318356078594,0.220654519643,-0.0298245390254,-0.349079472923,0.356447268947,-0.370824953788,0.492288440926,-0.158770717638,0.131057139925,-0.256022256742,-0.209026791351,0.160694406361,0.430481983236,0.172189687772,-0.20603310158,-0.347596678495,-0.0689896271474,0.281962939492,0.00613626640707,0.289751746292,-0.354297502882,0.0828479849112,-0.470808865624,0.248087667675,-0.0437622913631,0.208278615163,-0.241466360728,0.134868890489,-0.241571645795,0.360903655384,0.00649738944152,0.290769829129,0.391709672789,-0.348789543432,-0.408496860509,0.108639959817,-0.289391356534,-0.0306307861273,-0.192165737282,0.138589144113,-0.431567635549,-0.357958897959,0.127109233193,0.186453851169,-0.330967100973,0.299204487104,-0.332885642541,0.0316923864936,-0.14834894371,0.0501382352775,-0.163065705005,-0.364423360239,0.166272432142,-0.472184030605,-0.425134302128,-0.428700119503,-0.499193140542,-0.449263334928,0.138651308636,-0.137473744803,-0.106563764024,-0.298283701277,-0.448389072742,-0.176297146292,-0.408089858248,-0.0373108106643,-0.308909986849,0.180982781432,-0.344318704396,0.228524762789,-0.236182126398,-0.345288071673,-0.422515610779,-0.100182915429,0.493047953454,-0.32311922226,0.0914484030949,-0.281944113448,-0.133451068123,-0.432872677731,0.235990785009,-0.100923871855,-0.225479731759,-0.399074975631,0.273335706295,0.39546689245,0.284920536499,0.0694215028295,-0.433470976745,0.456693708991,0.385267332588,-0.303237644986,-0.0426979677379,0.463501891786,-0.395173365456,0.196963595782,0.188317034906,-0.487989478603,0.357151187788,-0.128367258573,-0.474612051323,0.426107830721,-0.259778105964,0.0884266186993,0.21182645511,-0.330096452452,0.288598366557,-0.429987727445,-0.0978196330539,-0.254069694733,-0.218153488054,-0.466449188516,0.042952210396,-0.162672113378,0.408028340691,-0.0822257526309,0.0171562748985,-0.152859759954,0.260642822129,-0.0135206761375,0.300556295017,-0.0904654299437,0.383309189417,0.390364518671,-0.205631815519,-0.146613712254,-0.300018933177,-0.0742514801141,0.185155685494,0.372715966063,-0.435516518484,0.294407082563,0.0332439537713,-0.0882306716418,-0.480809768177,-0.33436844195,-0.170343807231,0.388402264448,0.201001383647,-0.463545478087,-0.234419269122,-0.0326910544393,-0.0229197999129,-0.323920626888,0.49896010381,0.25165109694,-0.0826527031032,0.198299120828,-0.0777334972129,0.489864115488,0.199028887507,-0.0384620104718,0.203505853999,-0.322609298962,0.110029517159,-0.165931372269,-0.302810210467,-0.130212755632,-0.255469744061,-0.465114460326,-0.208943840984,-0.177265352977,0.146205950425,0.176331163093,-0.473619924719,0.273702792578,-0.389223752333,-0.344233286207,0.308406836762,-0.269984856587,0.365568573927,0.0316860907981,0.484404789454,-0.0409064510992,-0.44613785862,0.226320608771,0.307809722848,0.0377886449238,0.175540352825,0.163204026629,-0.0988294703288,-0.34292314879,0.0281722051453,0.47977414023,-0.176194347933,0.215642059975,-0.351530703862,0.48042072688,-0.30930805272,0.489333853997,-0.474928943834,-0.070885019258,-0.374235707982,-0.491450022181,-0.119584237647,0.272293590531,0.419753514516,0.344662256965,0.109876881258,-0.4742046028,0.377159889455,0.231299474509,-0.134799510028,0.256798192673,0.339471114657,-0.000677923970347,-0.425463217106,-0.217725190442,-0.0722592431519,0.204320825107,-0.0787302001551,-0.0573191827058,-0.0671492061982,0.193342543738,0.1143860689,-0.44880728772,-0.388449086892,0.078415958358,-0.355049833062,0.391695761379,-0.0870834133367,0.206969778938,0.403821508756,-0.015031006789,-0.00628662590251,-0.33594473786,-0.407057213174,-0.424546006232,0.0868070371514,-0.249502970919,0.469360365893,0.162160661552,0.0491740597401,-0.0102184803778,-0.169709192492,0.268165867621,-0.0889460067469,0.0865399589645,-0.112340123264,0.296882331037,-0.354977497786,-0.481347209984,-0.357311372626,-0.224937247228,0.111267798716,-0.0224121734376,-0.375747641085,-0.394017405135,-0.277268856731,0.0663753199621,0.375847640563,0.107346639862,0.326381838994,0.377767795085,0.341217332022,-0.484856937336,0.362489995959,-0.314720909966,0.49869105383,-0.098716822507,-0.12053761632,0.286920775432,-0.0618749593024,0.408930399107,0.178037167346,0.18099960968,0.210976294864,-0.0974969676761,-0.472078749825,0.0782821547841,-0.174383855327,-0.416546935551,0.446170947613,0.26183599132,0.0523763095095,-0.229356368201,-0.452613153528,-0.430847627657,0.0419443255158,0.480162246821,-0.317178451114,-0.0917304276516,0.219628055313,0.240259774414,-0.425145834722,-0.0113600814666,-0.0551765446048,-0.356788573435,0.0592108191145,0.319040944828,0.204026157879,-0.272939628249,0.209152947118,-0.375978858519,-0.225885099086,-0.167978544315,-0.185895113787,0.0378640576945,0.288042301664,0.212242464163,-0.194427175279,0.0485196797683,-0.299336286437,-0.202744719793,0.44950989021,0.304144861186,-0.317953112908,0.190974352955,-0.175474294197,0.289975962441,-0.290066773647,-0.48728836418,-0.489827910482,0.43441933375,-0.26508265261,-0.462842281202,-0.225350226516,0.482589659181,-0.122748436459,-0.255753717244,-0.481832498422,0.104009861376,0.299297810925,0.365940250514,-0.307457435962,-0.301670710532,-0.313861846233,-0.126660730525,-0.166409774175,-0.443771077319,0.151455554436,0.387077733177,0.404905083599,-0.333517074816,-0.166556383629,-0.140191311998,0.153352671972,0.281460564835,0.383373237116,-0.371984573016,-0.26125285885,0.333307109609,0.396010413529,-0.0402002989678,0.13441684702,0.461007491912,-0.228834315144,0.00968915769905,-0.215419904644,0.110552161185,-0.0509000104904,0.394168890102,-0.429389012875,-0.481281497155,0.478478807369,0.436482694791,0.374131068226,-0.147136677192,0.257031453196,-0.0523100998068,-0.433181911387,0.265318846659,0.481204125774,-0.370463034827,0.351441816101,0.0281420786053,0.197651761112,0.199092946273,-0.222033832538,-0.365686914814,-0.269842333344,-0.487920565892,0.133768779553,0.101894777868,0.122496893587,-0.26105198953,-0.458697530031,-0.130028124695,0.0903448469152,-0.201292959468,0.432036492581,0.125293220777,0.428031320915,0.0754857762297,0.330923349261,0.177757571801,-0.0317367206884,0.196163973613,-0.0951669190322,0.348176322782,0.222250014189,-0.0476861484207,0.239769243465,-0.161683544909,0.191295934224,0.14921278527,-0.228759912219,-0.107249751725,-0.374462814341,-0.20437618862,0.184509015858,0.126959127832,0.00329698322517,-0.326758697951,0.147998075251,0.200105510767,-0.282666997153,0.109444952417,0.0516499983648,-0.339003816419,-0.398015589746,-0.417086333836,-0.172606822996,0.486626345379,-0.470658387841,0.0441497807302,0.307459461903,0.325077570214,0.40879331667,0.0111347825697,0.145067243731,-0.0411265283211,-0.125658713125,-0.190819151439,-0.176956851635,0.185298823903,0.463664811653,-0.354947505486,0.359712059458,0.15830784113,-0.154356262223,0.291423975906,0.29713485909,-0.0838955805535,-0.352959083846,0.450810762334,0.238259315179,-0.428001978253,0.211877057516,-0.0564882798614,0.477846777315,-0.22314618276,0.373132833139,0.471169535088,-0.280018270768,0.0169069249186,-0.352115855371,-0.0665719621623,-0.246450084524,0.368548135304,0.370181495533,0.363884288001,0.115064675136,0.110402118371,0.124477132241,-0.386819390103,-0.0940149735257,0.472386535697,0.216580933417,0.294729022805,-0.0545365752923,-0.390808888104,0.337982627207,0.469095836051,0.480316358992,0.355447704295,0.211026295736,-0.278233279829,0.397715599483,-0.319266817107,0.242249186148,0.11700097308,-0.47830232348,0.487633945485,0.084818763258,0.402151841394,0.373950248452,-0.0416871036375,0.299828098514,0.118901521576,-0.375305654835,0.0640646204987,-0.0261226586936,-0.0472804348353,-0.327538541185,-0.398045496148,-0.26716665874,-0.306195704792,-0.258560053711,-0.355687473926,-0.0799787711754,-0.0964963137902,-0.186911265265,0.339173013822,-0.380856037311,-0.330194139586,0.235015258089,0.157951314986,0.052401171828,0.159397714297,-0.37774778422,-0.147001702815,0.132008989447,-0.112681286495,-0.0389061601526,-0.25801476947,0.495251676805,-0.244543219362,-0.489343309447,0.439035672797,-0.169227682465,0.229895159615,0.334944846148,-0.0274101840973,0.245691465682,0.302054988313,-0.29430626482,-0.181034486121,-0.305400070564,0.384658685425,-0.427166530934,0.487427088896,0.089204829327,0.360636189932,0.0670018080011,-0.0662061575026,-0.26264403704,-0.189087499498,-0.424374031134,0.136862610423,-0.245739976759,0.138792620439,0.320659783913,-0.112930174671,0.420820916209,-0.0961876465732,-0.198341016909,-0.238056785814,-0.0318089986853,0.458172644762,-0.399878689248,0.188678881818,-0.416013597435,-0.332555119111,-0.194021945238,-0.187392654846,-0.16135311288,-0.444686532174,-0.0568495714196,0.457890551854,-0.278401394512,-0.173589145806,0.401895550207,0.349686367502,-0.191702012832,-0.468796099918,0.0734288974218,-0.181454060332,0.32606944251,0.265854582134,0.391110872986,0.218308021543,-0.280678353652,-0.444362386335,-0.223530512344,-0.342647806144,0.419972300691,0.471713970569,0.233659539982,-0.48797282069,-0.0217012543828,0.0696652113231,0.329579898705,-0.497070686012,0.0814936134532,0.343535278239,0.432145593057,0.291982483267,-0.446921314845,-0.193218747074,0.400827207556,0.203265848043,0.336212045787,-0.0432151296425,0.0120640285688,-0.301797908943,0.406645058268,-0.0324728295509,0.431454174636,0.232586028415,-0.0848799129441,-0.0896626781556,-0.346603873003,-0.363967427027,-0.00390956087927,0.385467172885,-0.448742581812,-0.44835594827,0.134670196457,-0.0363737661361,0.479466518834,0.304964633163,-0.00551267525985,-0.195718279749,0.311455398285,0.032656857675,0.0878645678551,-0.472191517028,0.359520037811,-0.0934421389586,-0.299221090285,0.497141640876,0.338938887217,0.246067850157,-0.0690249073905,-0.0100933078466,-0.431768455258,-0.24156319784,-0.42653926507,-0.0184354617645,-0.0120760237998,0.410163330689,-0.239459186688,0.151401125648,0.135582220937,0.251809185066,0.254917233037,0.0782190706598,-0.34668381236,-0.438651937201,-0.0636793658463,-0.332470818308,-0.395132061684,-0.11602787343,0.368986054932,-0.468954957586,-0.402619612338,-0.407128062674,-0.141800644033,0.0613949450988,0.164411834935,0.129625245241,-0.427756734811,-0.313850725714,0.363463879399,0.153579358286,-0.455571395822,0.217755481522,-0.113089056302,0.0700134571677,-0.136897466725,0.309621523607,-0.413703788035,0.325677102342,-0.00843245990353,-0.0212443549506,0.394118563499,-0.124921683276,0.195369015226,-0.104122987833,0.297817374771,-0.0635187678704,-0.0925517940719,0.307044268389,-0.189733658887,0.27256426852,-0.22188240674,-0.204021614408,-0.384237678504,-0.0975325942695,-0.212516281119,0.0453243795262,-0.349344566057,0.319249368873,-0.0701691021581,0.322676408469,-0.113163671414,0.204379652663,0.361414626259,-0.014260337961,-0.171910557477,-0.467115039054,0.222026614278,0.415761772879,0.117995178463,-0.478207822842,0.483807398358,-0.374466083149,0.101771506846,0.0241714648928,-0.118394402323,0.467742543107,-0.325079530911,-0.271071728953,-0.29029146848,-0.031825249295,-0.0304667475627,-0.391701373626,0.123163042203,-0.424096441523,-0.0854066773477,0.396810831636,-0.257304541614,-0.472324463071,0.132410071318,-0.106456684632,0.414524438023,-0.227601779259,-0.0397033704414,0.306454365348,0.471156516109,-0.208768831054,0.416711882713,0.124732076243,0.0737419946871,0.0781682628382,0.494974071716,-0.369216957786,-0.0301235885252,0.445797790098,0.463326474161,0.269952669631,-0.0889373210746,0.0426954862317,-0.171275332762,-0.44439952521,-0.0223548678771,-0.0879832075961,-0.438790814873,0.167934323869,-0.431964124861,0.124679814137,-0.340683801856,-0.43417486,-0.0681012836614,0.204902155037,-0.253565932955,-0.0518060380187,0.0158866426322,0.0160785719386,-0.0274399144154,-0.36281436062,0.312077030344,-0.442107825122,0.0717282439441,-0.13002891353,0.236588634337,-0.130026565921,0.223174260083,-0.0304376696827,-0.307346960564,-0.345742380573,0.450045899433,-0.17250499495,0.307606286889,-0.265570961214,-0.462742513429,0.069125272308,0.241303972693,0.0852635966435,-0.327361800146,0.463743058659,-0.130578142013,-0.104338114359,-0.448980945528,-0.048729596773,-0.39625390977,-0.0928472756021],[-0.395054066079,0.0178382018662,0.451019016169,-0.341648947578,0.366235627671,0.166478443301,-0.0235234747281,-0.362072526962,-0.0114688068409,-0.0929104236414,0.05516404086,-0.293108508854,0.0151178783419,-0.03505788089,-0.0281110136932,0.0743616321587,-0.151603319185,-0.269144834373,0.478089238412,-0.190867924917,0.41970618987,0.477138341278,0.484061626104,-0.0240891043759,-0.192601614364,0.235095678988,0.0888522071647,0.484465038086,0.00882485072528,-0.423778732687,-0.138740586474,-0.301821702219,-0.221845919087,0.436425685255,-0.248333493499,0.296356841167,0.261135599121,-0.273665807377,0.474865268674,-0.240355365503,0.413692401996,-0.161578960735,0.0512737558149,0.301738482903,-0.0956083138516,-0.0579853808496,0.419173824173,-0.286287118873,0.476156194762,0.354744360319,0.145411896099,0.020282353684,0.0533464185479,0.360260656465,0.169273627168,-0.258734409443,-0.0998377295803,-0.0944636665813,0.0898430751983,-0.251552017408,-0.36296598377,-0.224047234016,0.00860345899534,0.000461848738346,0.0643794405576,0.126133028866,-0.471963904498,-0.200405131202,0.101252821134,-0.33074339757,0.184213548452,0.398496148556,-0.274612879522,0.330013757628,0.346472901969,-0.376156847743,0.114321271317,0.405545202979,0.470165974426,0.269211611602,-0.370961677267,-0.0744920797747,0.298199171345,-0.176773025811,0.0750572095535,-0.128331153393,0.456355742208,-0.204550199656,0.163268653505,0.186878133171,-0.0300632589955,-0.0637275781219,-0.486622711679,-0.218508801241,-0.090612840427,-0.484787496282,-0.273514607912,-0.295430564957,-0.0665239247589,-0.082563580567,0.1252710012,-0.26158499984,-0.274874841313,0.190663199771,0.489846935139,-0.0805346650219,-0.431305273361,-0.0713207821923,-0.261213797099,-0.447321161702,0.256604568981,0.359035086511,0.0137185703274,0.215155932088,-0.396203261407,0.399900603466,-0.0635027324806,0.251293560355,0.469013109384,-0.205458464385,0.496279265141,0.0230496060998,-0.165067794534,-0.2093174872,0.0151572344244,-0.141475337023,0.460899579479,0.0695291330167,-0.400879969096,0.460163245129,0.396488732472,0.205964949321,-0.0887328337145,-0.199625068462,-0.43756495719,0.020752682138,0.286893881216,-0.193096945476,-0.274378567601,-0.307131790269,0.230440355718,0.249242646228,-0.401426810986,-0.287974892044,0.404261012871,0.0876628174176,-0.269366619625,0.0754376267268,-0.420938633421,0.000848498681456,0.189307858997,0.0485787852439,-0.397212137512,0.0762336725872,0.372383312693,-0.359373294916,0.496070573133,-0.267233895724,-0.152880534757,0.317882031707,0.260042692408,-0.413968672699,-0.130526210751,-0.242010544403,0.489972991566,0.181206335119,-0.484399588825,0.436224547363,-0.484978661776,-0.0282902573726,0.452042714024,-0.15074532733,-0.128009954863,-0.00432899464247,0.460416866212,0.437507368522,-0.275319714296,0.360986604696,-0.341714550773,-0.422836890371,0.0944960255027,0.355002956713,0.440765903638,0.407099618745,0.0680419233381,-0.334062785596,0.225268878391,-0.317477319139,-0.218216430801,0.174149148753,0.0232517641324,-0.236153964737,0.25189520535,0.465331464177,-0.0674370536155,0.175796943175,-0.0301057539312,-0.306585171064,-0.304011647784,-0.30782365173,0.286924255586,0.174824251752,0.409455510488,-0.276616652136,-0.419233011642,0.435285059431,0.360973210547,-0.127358872196,-0.380884395563,0.110110756396,-0.212980056338,-0.403800896344,0.113492845051,0.218356410214,0.453617128925,0.113952331913,0.15476027507,-0.0635874911773,0.372368177306,-0.420257435264,0.0668679069389,-0.299943790718,-0.105515144842,-0.169610204363,0.471291975986,0.276494767302,0.140143459663,0.306251360865,-0.429785426575,0.247162244445,-0.359820982401,-0.0595814078773,0.448845115975,0.146717832826,0.385261927915,0.249228782726,0.0532786913554,0.44134483295,0.238486379608,0.135525444306,-0.485381468783,-0.497819207692,0.457964193871,0.174033419015,-0.113113300112,0.304188417741,-0.471538566308,0.0363228914699,0.309686326444,-0.298611420808,-0.306702625885,-0.0467140721329,-0.138723894489,-0.495428028868,-0.382579665721,-0.47717284834,-0.262173526943,0.389772384342,0.233330855863,-0.381919159321,0.264474642815,0.217633060541,-0.454267880405,-0.46174824591,0.173369378203,-0.391119406311,0.124714164319,-0.309764766581,0.21033636389,0.471307783632,0.437728079892,-0.339434266459,0.00844182097438,0.0729759267626,0.475341163715,-0.143743350759,0.491737334536,-0.158246164356,-0.336799180858,-0.142374936291,-0.0352931615034,-0.140909682414,0.0849793528851,0.41868556285,-0.38101494151,-0.0313479622562,0.43238843929,0.231664270924,0.0314458900704,-0.00298425483341,-0.496559208333,-0.134885227683,-0.24743674465,-0.296109911909,0.0532635202309,-0.320348899659,0.0727749984519,0.392375064944,0.315687474008,0.129271223417,-0.252369259637,-0.204914388946,-0.357938634357,-0.473733086307,-0.145446780871,0.280483456579,-0.0280098605646,-0.396170355613,-0.054354265044,0.256393093997,0.155264239128,-0.0220985830491,0.310792624664,0.168728830512,-0.376338048333,0.30204437255,-0.402368508121,0.474333521473,-0.11304174067,-0.131657397224,-0.332825564481,0.421662473797,0.379264447946,0.321723112086,0.385783981161,0.29311358119,0.369030638737,0.116251706082,0.261937685977,0.4032303812,-0.0853626491086,-0.356648163385,-0.014206861343,0.326580034456,0.0624809954308,0.218251404316,-0.326409999597,-0.235810964508,0.192579965233,-0.200002329047,-0.402734417375,0.193263487486,-0.0422846797052,-0.425517811461,0.0535874716182,-0.221729948242,0.0594557760171,0.331853244967,0.249382956186,-0.111472636403,0.108385040809,0.306646920323,-0.468467285461,-0.0883225710605,0.144396986901,0.36366907974,0.28900280333,0.122078234673,0.349034112974,-0.37479708461,-0.344219332107,0.00421890752626,-0.30687167272,-0.0583670521458,-0.0794483230222,0.121325389012,0.24738223108,-0.0303934837096,0.127489263343,0.331486929679,-0.359621882447,0.045691201936,-0.407835362648,-0.399637948308,-0.35651780304,-0.00666767309665,-0.31641551629,-0.0218499791026,-0.146473419555,0.258940756239,0.0131511380765,0.405056883683,0.0512175158075,0.0874349982084,-0.00818994706511,0.000205916753211,-0.0372485814434,-0.338352871051,0.141923240905,0.49918428651,-0.47960589906,-0.0643152724846,0.367914458066,0.126504639152,-0.306946415557,0.202475240091,0.110817092423,0.158279468984,-0.273564272131,-0.0492197583088,-0.264533438822,-0.153118515792,0.157549060154,0.33208652995,-0.381009217506,0.238093476775,-0.0049476006311,-0.194665868857,-0.382254867028,-0.439936355715,-0.156585749572,0.12501497612,0.31791535579,-0.382647164653,-0.447314939163,0.168898430259,0.212704687665,0.474064321836,-0.395233711366,0.121094133661,-0.428687286025,-0.038169946981,0.269646249802,0.215073906744,-0.174183925763,-0.0813992993219,0.254293782313,0.212578009068,0.0513978891938,0.453188153863,-0.40622589329,0.122266124436,-0.412663352972,0.122613773926,-0.0702761741505,-0.316189423536,0.307215234758,0.0919454717507,0.487686859088,0.453886582091,-0.453574897845,-0.393984110267,0.401860820941,-0.135871327892,0.21369511064,0.167545487199,-0.225112996,-0.123422961943,0.183376849028,-0.339034392007,-0.103358079576,-0.378281223617,-0.423625287989,-0.435666828065,0.285502901124,-0.492606408135,-0.318840242527,0.311653955684,-0.186765806551,0.369592968193,0.237217720252,0.151046922292,0.327506887217,0.28971533277,-0.0270487521316,-0.375083833434,-0.431013384572,-0.0615594924483,0.403123769992,-0.151884888104,-0.479901478585,-0.0893913517025,0.371340067363,0.242517393835,0.344201901335,0.204603566018,0.0198180801756,-0.422080035556,0.446680116807,0.382751784029,0.266768432826,0.408755710285,-0.081496293255,-0.408575765268,0.473536434031,0.388655929893,-0.458784794325,0.0243339019402,0.183092695991,-0.407150378254,-0.191178100954,0.00291177613406,-0.0346599997057,0.497587505824,0.089714725131,-0.0535231502441,-0.27558092681,-0.291782880323,-0.348334098103,0.168828233632,0.472841435527,-0.0522969104155,0.251447868585,0.279493175551,-0.135189871885,-0.323081307252,-0.0769329776681,-0.360912376392,-0.413162524728,-0.0367955089947,-0.0836870137854,0.226582500311,0.0335337088764,0.372721894755,-0.139225765553,-0.347269675286,-0.0887041332993,0.171435425307,-0.393163225116,-0.405885716778,0.398410177901,-0.481446589514,-0.479285660378,0.16647900522,-0.0344337394714,0.128744026678,0.438326654675,0.455144665645,-0.305814408122,0.0216880074021,0.478095121877,-0.284067845451,-0.447739675522,0.306446600782,-0.203581085374,-0.444115960187,-0.0404307906187,-0.346161246331,-0.433766971191,0.183935845572,0.342511359753,0.323841331845,0.411299356375,0.290823506423,-0.395377819245,0.128387353716,-0.249881329882,-0.134997714183,-0.181378786256,-0.154402720631,-0.145140519376,-0.288661813924,-0.155078210862,-0.158198212436,-0.0306881196556,-0.0272963254039,0.172769477384,0.0123912179431,-0.315760031447,-0.470722010776,0.405375641944,-0.397264438178,0.342130672499,0.217597704862,0.476072508906,-0.121738498603,0.388120234655,0.479398910602,0.273325550202,0.108215472629,-0.315277887832,0.00568019715097,-0.132498191605,-0.429382537172,0.167361172522,0.235961788033,0.309250905564,0.0891776547945,-0.448618897425,0.380976331175,0.187930341827,-0.088505920948,0.170595133046,0.145726907265,0.33996884986,0.409651862992,0.234717202393,-0.00677855238128,-0.0991441645216,-0.0613146173545,-0.47902640569,0.405997685623,0.272114411653,-0.058914017614,-0.364050723033,-0.344357985508,-0.0491964578874,0.0713952142423,-0.449838751196,0.493718440687,0.0895154268503,-0.00653926295938,-0.410211197028,-0.115736614869,0.319986746063,-0.32962300692,-0.163680890448,-0.391235903722,-0.0854409584392,-0.379623809478,0.312099556299,0.4234369888,0.164519393959,-0.112279549725,-0.192679402112,-0.150632353964,0.16201763694,0.475218737845,-0.0264228397484,0.233628153508,0.33445021453,0.00790814047397,0.122469673425,-0.31241948431,-0.373668723991,0.366755286084,-0.122087142138,0.423503955478,-0.229347554402,-0.332793742387,0.0712671224932,-0.152283792157,-0.236873197587,0.448799070096,0.4455060659,0.0165150692612,-0.18495433578,-0.191786013881,-0.262769949365,0.330745753239,0.284052074529,-0.468741931658,-0.0136782272599,0.188083489221,0.0586659832399,-0.0563661205488,0.110157347992,-0.29193884625,-0.125207604836,-0.274529912173,-0.252303206963,0.047127359514,-0.397800730351,-0.030695798262,0.179809485954,-0.425360720617,0.342667449216,0.186084685833,-0.462857066893,-0.48411498754,-0.0515687266912,0.148466921046,-0.0140994159385,0.20910718874,0.323730546611,0.491959012383,0.238479645309,-0.0501620657507,-0.142747747039,0.41954265654,0.125366276377,0.107848911525,0.341707847397,0.000151321443197,-0.235667445945,-0.336965131446,0.368087166659,0.265434527742,0.269088671091,-0.0697385302631,-0.100403430101,-0.463952725361,-0.0858714130285,0.466883900575,0.466673851489,-0.433171794658,0.314681981285,-0.0593346549737,-0.462387273244,-0.463298166382,0.388142218853,-0.0762980379924,0.142013310788,0.17942187545,-0.365019185535,0.295725877092,-0.470516585834,-0.287881450836,-0.209099629525,0.0928952635323,-0.35894355035,-0.476165602305,-0.363737353101,0.119883921508,-0.496909239496,-0.411201589368,-0.484402072345,-0.0617960646319,-0.232048357818,0.104352832603,0.385442607805,0.07948440085,0.346026163377,-0.450265649927,0.158646783651,0.0980915858712,-0.0950812547996,-0.289332068875,-0.312861321156,-0.200162707939,-0.143757611945,0.197819479976,0.465590754973,0.308658622412,-0.343885732746,0.345123543016,0.398763334896,-0.411003998479,-0.39413995344,0.0972522615037,0.336401229485,-0.380548146111,0.064334126081,-0.00473050940803,-0.267043139795,0.0199358120386,0.277416214723,0.427002438632,-0.0495892572483,0.313388073414,0.430325752221,0.352651553022,-0.364406425763,-0.194444501339,-0.196225507517,0.293325305319,-0.00448503638623,-0.0688267226418,0.123540621852,-0.251881911878,0.173121069611,0.188652288546,-0.0571147687374,0.277034034735,0.141926999115,0.445829589267,0.43149622073,-0.293134551362,-0.467951716523,0.422975553877,-0.119466314478,-0.477420732758,-0.00345131805232,0.0788599710812,-0.434140638213,0.285165127728,-0.236484413251,0.196599969287,-0.145250168794,-0.00157555424522,-0.0575984740533,-0.0642927833129,-0.489784705966,-0.416735628737,-0.39471864039,-0.29312554379,0.423686013609,0.356373233893,0.116084612428,-0.431968138972,-0.138115025099,0.10357749927,0.424927049178,-0.136907021287],[-0.480812634088,-0.104603950003,0.155727932092,0.116414045465,0.0894850170828,0.438857266707,-0.203723465666,-0.414969862974,-0.324415577639,-0.253091263135,-0.256852430529,0.177327826836,0.400257440972,0.100016324398,0.125226644693,-0.426403662692,0.28241554804,-0.497301103362,-0.0290879978564,0.370346010335,-0.494179907936,-0.00785337340836,-0.0312996575734,-0.11395559133,-0.0701819514035,-0.115695966224,0.0813674473995,0.172826248054,0.366454367731,0.230427441379,-0.45361305276,0.150360193563,-0.00922659474792,0.283999401089,-0.301021264514,0.0877836106562,-0.361550638412,0.0397405672709,0.447305299557,0.35330718318,-0.319178785042,0.439772325714,0.424277989156,-0.137739693654,-0.415233052342,-0.16855907724,-0.0750458454965,-0.144218151037,0.280875639119,-0.163184272036,0.407973368925,-0.189366816202,-0.351654212181,0.314648466003,-0.469965855285,-0.372740983549,0.180885297007,0.0420197689848,0.368451834081,0.243475106973,-0.0403612489319,-0.401779725976,-0.367196151515,0.00595356885798,-0.303547808062,0.412139151796,0.386382710244,-0.106170251085,0.258958880791,0.296298184685,-0.396222375751,0.341749459778,0.313216641078,-0.0689984402896,-0.241510063698,-0.206299750429,-0.390476873624,-0.0837735903274,0.00214727932748,-0.0825829454979,0.409385826649,0.163752358348,0.47812309133,-0.482534982401,-0.486055885395,-0.0453337311427,-0.411430337094,0.473222181265,0.0123827276548,-0.412700283393,0.194617824812,0.338465131041,-0.126490737471,0.128393289196,0.0308506277968,-0.0241477291626,0.12857331229,-0.194344437673,0.364892095109,0.0891247954883,-0.460477688414,-0.463738676243,-0.213852369463,-0.283389015776,0.0369924783085,-0.146920164537,-0.0327230532402,-0.327987084266,-0.263999580865,-0.485831257419,0.199635730563,0.408024302583,-0.314939130751,-0.454199190877,-0.268224680501,0.0468618768882,0.266635617753,-0.416227191757,0.210453326668,0.194613533649,-0.0149440642533,-0.393133636117,-0.160580161752,-0.258464512138,-0.364294671048,0.22729764526,0.10500180158,-0.103127395118,0.489648474542,-0.11793432407,-0.336595030914,-0.345455054677,0.407080960967,-0.411353927671,0.0872335430672,-0.492332354165,-0.0466528274504,-0.0412602105472,0.359025025819,0.342654688847,-0.00893748486271,0.101090707339,0.00116951355513,-0.0435921310096,0.394009626116,-0.333346263218,-0.0496952800746,0.0794079495776,0.487033583621,0.387822946358,0.343252900028,-0.20799802882,0.334789156115,-0.486755715266,-0.335852498069,0.178046496535,0.175803208778,0.340689679464,0.482413596055,-0.19222053467,-0.362402483191,-0.323850981668,0.265949535762,0.0474119554805,0.314496965125,-0.205991268994,0.0543547169738,0.204882372041,0.332425754152,0.231768537032,-0.496748335854,-0.186164840134,-0.247264409434,0.42636532923,0.351212179396,-0.298339114509,-0.330459082404,-0.326172523828,0.160693378969,-0.499392677756,0.183673765187,0.00824413706122,-0.0101338236554,0.323123158664,0.411222581545,-0.120737945293,-0.410965215422,-0.447939857296,0.139025595449,0.339850323924,0.322573718776,0.0165969483803,-0.0378720056309,0.397288441445,0.278907954995,-0.367017356909,-0.0365528055246,-0.431747680326,-0.23111660781,-0.229070534007,0.0586562656731,-0.237026822664,-0.0793013955627,0.475265654014,0.493128085494,-0.341682058033,-0.0413547313826,0.00497898307252,-0.430287009463,-0.448266464958,-0.132319360653,0.170170570586,-0.282033914606,0.362866611922,-0.416004165553,0.221927881156,0.31235850467,-0.388305126301,0.490820035555,-0.166417537279,0.454382993426,0.163827571742,0.0309216650879,-0.123478823915,-0.448128531854,0.495439882163,-0.0100440846618,0.128229099812,-0.359789714931,-0.48210744317,0.344689277209,-0.0355687742868,0.00937026990514,0.15084460191,-0.40601656347,0.257023570064,0.179359802868,-0.333812670011,0.498440378773,-0.293315269072,0.0669169322862,-0.174516008868,-0.281302078612,-0.11576003483,0.0325317700393,-0.412375215631,0.0976626811618,0.447150351327,-0.473619912508,-0.473327581138,-0.182491734475,0.332807289495,0.4600519807,-0.0449377369615,-0.33768046243,0.425248287391,-0.086346627261,-0.114898717551,0.48801447817,-0.232956106759,-0.263429768632,-0.172971097412,-0.0870322710635,0.170626070093,-0.0153531696489,-0.361191815379,-0.109877405485,0.0902388229111,-0.379417349088,-0.484147471009,0.317083179568,-0.439386260679,-0.205890697117,0.00049792018584,-0.310611173102,0.172295293612,-0.26693419188,0.37116981489,-0.124315742694,0.358103016987,0.368921300003,-0.26427723329,0.125363430584,-0.175595675007,-0.238583330148,0.25736810038,-0.30772356197,-0.400787167473,-0.240162408069,-0.449940253373,-0.328622798513,-0.148073079554,0.392496965649,0.121452754926,-0.335729427192,-0.114881795725,0.435834565894,-0.0623867735307,-0.040532635036,-0.0430447005015,-0.111846017547,-0.399163971781,-0.287694933911,-0.168884935514,-0.473843939625,0.000215908550515,-0.456802793396,-0.491460156541,-0.363853397124,-0.394467053225,-0.331691861774,0.225138331038,-0.344750477466,-0.189954398625,-0.235178113929,0.0206753780502,0.419617355779,0.156545145993,0.245810002122,0.0230562095939,-0.390334996274,-0.373272117495,-0.115507406479,0.345856531298,0.479083720482,-0.0942857529009,0.160756136708,0.268461157794,-0.264045281997,0.454073151924,-0.102239490307,-0.38019554214,-0.431635570187,0.314417713805,0.138681935055,0.0138247737241,0.49780055619,-0.203825162506,0.0633258449243,-0.115989817142,-0.0721784493017,-0.0186071260536,-0.467358808323,-0.192988738107,0.135955303759,0.371106872885,-0.299609781836,0.152151772612,0.127766955423,0.107965359684,-0.38507694204,-0.262056085885,0.181421212586,-0.0337758847905,-0.0583736315453,-0.388545890683,-0.0800617481287,0.232901682538,0.306797968036,0.00873896342273,0.0744941581574,0.0327876589962,-0.293932765227,0.0313145931828,0.484967299165,0.0713162734221,-0.329814243342,-0.380144759907,-0.48650914894,0.064769707535,0.213417839485,-0.402698363062,0.475119525759,0.169270667825,0.1655465731,0.225442922521,0.0523861446031,-0.373060031746,-0.328331668132,0.34108463044,-0.230770484781,0.446008540757,0.335677921855,0.387979240623,-0.310315680943,0.299732446341,-0.0377196553816,-0.0876568522846,0.421316547969,-0.391430045148,0.119106125244,-0.414385806778,0.299482003023,-0.181511318631,0.46356553749,0.307906961266,-0.40998409404,-0.439642459563,0.109608928673,-0.128090445489,-0.200994885347,-0.408251302283,0.32561825404,-0.441082545647,-0.447088578278,-0.324249454603,-0.232525610047,-0.0129405533541,0.233475984794,0.496067051996,0.354086218774,0.0197807337236,0.351579384508,0.155663281131,0.323231820533,-0.405646794017,0.491060279651,0.471839106972,-0.364503210791,-0.393977173804,-0.33497663487,-0.243229871781,0.041588471213,0.414025495579,0.364511721946,0.337992250264,0.426665419639,0.308876443426,0.0890225938529,0.162463434379,-0.302121214685,-0.438056471357,-0.148025026712,-0.139424285728,0.159290374767,-0.275953880888,0.210570494538,0.0500090860112,0.302754752691,0.184067393434,-0.24546487737,-0.0748813311181,0.254853325357,-0.141649098345,0.229145268603,0.217180987183,0.21963008831,0.0157373515079,0.202334689237,0.390263176521,-0.124042576702,0.161086433859,0.193238667614,0.298574085524,0.0105641963636,-0.256264077459,-0.305554521578,0.00532262826082,0.306766825581,-0.207609242659,-0.385549434724,0.218092486588,0.379662536408,-0.370019649209,-0.325096360036,-0.235426663664,0.0347984783062,-0.0404420395934,-0.057007300313,-0.293643982411,-0.139644765339,0.183101957061,0.287776658186,0.284074385276,-0.0876497792093,-0.139184246181,-0.258128349365,-0.49468733257,0.261199364665,-0.0398457654201,0.287776311301,0.161531304343,0.207004549761,0.352098770717,-0.282209522928,-0.31764746779,-0.382855457511,0.483492237452,-0.333638231118,-0.131800382274,0.0779343103571,0.323822827736,-0.371147163814,0.340458214148,0.219872359873,0.276503464817,-0.0592575844682,-0.407993685379,-0.261135737842,0.219083015311,-0.153226581462,-0.407495423748,0.391586948677,-0.331933741627,-0.2210145913,0.0352275291445,0.126484464442,0.122483729149,0.356101460645,-0.144062147929,0.102881348529,-0.107387620597,-0.14907904907,0.34620523688,-0.144123710551,-0.0955572339997,-0.477301652277,0.0595684308759,0.414114169916,-0.378980369146,0.320454585456,-0.17186070251,0.114247473889,0.0391371742171,-0.412364778788,0.260608167255,-0.0915245062415,-0.199109864239,0.143681588836,0.307593356732,-0.0829717626876,-0.258970991215,0.310573721728,0.14616027638,0.0345495140756,-0.301405906374,0.41531101287,-0.22944384295,-0.0460787698291,-0.0646761905345,-0.349072875552,0.261476730933,0.139831602307,0.0977039533879,0.487194672223,0.304774785156,0.402593171118,0.153483710808,0.173913961375,-0.478129124805,-0.189914915886,-0.150846834137,-0.106678557112,0.355771470629,0.157740913528,-0.0316325386407,-0.35575701335,0.0651706724022,-0.308185123966,-0.052682168824,0.492980178255,-0.137963985463,0.339889724032,-0.221996365889,-0.447394570144,-0.268086096462,-0.21304705899,0.34395079044,-0.0670669102338,0.240013122788,0.0171998837766,0.444579933715,0.130992452428,0.115828395448,0.419069068266,0.352191837736,0.255467115653,-0.126062592819,0.24230981513,-0.351138489144,0.311532412504,0.0611916755179,-0.0906985899548,0.0783826366715,-0.0254889659399,-0.170667322295,-0.366957127347,-0.00230407755153,0.450778194887,-0.343090650488,0.273552872376,0.320510065161,-0.0792074430916,-0.270460340498,0.19160883129,0.307617020934,-0.0861111577341,0.368627270386,-0.102335970012,0.248872591473,-0.0133131697928,0.248862509638,0.47311616133,0.230589576771,-0.0794928523706,0.294211710309,0.486717783694,-0.134851858093,0.11820913165,-0.25811300088,-0.256984340781,-0.453846623002,-0.0299598614775,-0.199463987001,0.0694594044921,-0.22029241849,0.185269157446,0.223129705359,0.388318879927,0.479619412994,0.0574536091281,-0.0712006117861,0.0365041904121,0.179019308092,0.386578426589,0.0720132486579,-0.0889299279152,-0.219394615288,0.496033701199,0.412674046192,-0.245955449614,0.295766886877,-0.0480118919049,-0.0689116377464,-0.377477146825,0.0763291424674,0.179999325631,0.404790236447,0.420582678304,0.337159642253,-0.113429706761,0.034575874798,-0.290570904554,-0.145136791369,0.288493413661,0.130624943527,-0.123996826565,-0.489435655374,0.206550139725,0.0401427240675,-0.393547162904,0.0900207928261,-0.223746476943,-0.273665370055,0.353578446094,0.137645578447,0.277541979515,0.111332778073,-0.243631292589,-0.345287297506,0.199211493354,-0.251186188332,0.230436410931,0.469774508184,-0.00834685757278,-0.250515985041,0.296749683604,-0.0525864576778,0.186915754331,-0.354819643657,0.14120002408,0.132226484116,0.0519527255594,0.465089453909,0.0614576905302,-0.421579299226,-0.366492953246,-0.358102040605,-0.341211674725,-0.33654914366,0.401167414979,-0.429332188635,-0.38640660334,0.293964134704,-0.126726605895,-0.431519917994,-0.478382014483,-0.20020667365,-0.45764193482,-0.0983916124299,0.250447251524,0.0333795766309,0.430296218456,-0.0332723552047,0.455254931432,0.356394761059,-0.0294046919089,0.0390678569302,0.286472298316,-0.382802762973,0.00172695706888,-0.363438392251,0.481193317385,0.432881235559,-0.165992139016,0.116679964806,-0.0191141080472,-0.323006752001,-0.341069999658,-0.21230130679,-0.42960683296,0.0545973289392,-0.234592843848,-0.00574915554055,0.355984409623,0.0564357553704,-0.182882378949,-0.107626564826,-0.172985710245,-0.296144269535,-0.45921778754,0.0893282151304,-0.34328466287,0.385010209853,0.240509558219,-0.023349418116,0.405184980468,-0.224290222219,0.324745437793,-0.162412259203,0.179196838145,-0.104577578021,0.381226313411,0.00235864361693,-0.051957082663,-0.393194493971,-0.174791627974,-0.414269405019,0.0516628463237,-0.25654252003,-0.111395369137,-0.15776925646,-0.00518028455714,0.397366449119,0.244935052172,0.402174677432,-0.33141740715,0.178424198041,0.41224454274,0.17951988238,-0.379481520139,0.148885588207,0.36160612951,0.287263076101,0.342839094485,-0.408693278732,-0.4192010329,-0.168159780925,-0.169380197198,0.473132854863,-0.261110310732,0.170185020848,0.4370490631,0.441388473377,0.41154628696,0.388510087809,-0.200160997916,0.407236222676,0.364067628983,0.47026183916,0.151759804406,0.271313302062,-0.344516714152,0.317643737692,-0.294824131741,0.0776035914187,-0.292039461443,-0.0979099491192,0.388914929345,-0.373468019333,-0.183082593523,0.380885009126,0.0960255494388,-0.155716468252],[0.326462189583,-0.395502973774,-0.286473181382,0.32786562578,0.426499063268,0.418903780477,-0.32213741141,-0.411564782885,-0.257680057591,-0.431412084499,-0.341648272743,-0.0398753148942,0.149738323814,-0.0100049242252,0.269892298853,0.470834781453,-0.174748096707,-0.0141907978797,-0.125351935284,-0.0896199203842,-0.336431843002,-0.147533240459,-0.489363859653,0.299083444612,0.257328036271,-0.27330597814,-0.234539988039,0.335428787956,0.364590228423,0.398146387102,-0.0858180581856,-0.332823127493,-0.378481271603,-0.361200662884,0.105544191134,-0.386705551501,-0.264135180664,-0.322337071379,0.170770457009,0.243934414601,-0.189949460094,-0.480039115333,-0.22034635574,0.321121267943,-0.183193906474,-0.39110345008,0.399221727943,-0.360466894222,-0.341387038144,0.182534617491,-0.0356733764807,-0.155405016383,-0.209256029846,-0.190060439185,-0.110577723734,0.116066818926,0.486817948592,0.177925125319,0.0610726785758,-0.453808306658,-0.179717047356,0.423200470165,0.307944365918,-0.384355134915,-0.462645089917,0.273364833104,0.105077247203,-0.309515321804,-0.328358556378,0.28791795349,-0.351358202414,0.309532808265,-0.374975333022,0.136797172997,-0.244120528562,-0.0171150706851,0.167696031828,-0.0102422376377,0.3251540875,0.304133708599,0.0550751001911,-0.21015807773,0.191152855739,-0.40471231201,0.311425090827,0.295635809239,0.00526760591805,0.40304220893,-0.189779634454,-0.18155324435,0.448078730113,0.392975156991,0.355784485931,0.158466095396,0.22325216527,-0.00882974506223,-0.00192298183245,0.110190884635,-0.449081966856,0.142861414217,-0.0223482924843,0.148229084024,-0.460188007096,0.474016890359,-0.321724739033,0.253303298044,-0.0363590519592,-0.344023073402,0.295821413505,-0.0708966466218,-0.248024022724,-0.367089130091,0.0477120831379,-0.151307172724,0.096549875404,-0.0452121653087,0.19969506899,-0.49282903232,0.42499817603,0.214948474898,0.161473803228,-0.384385666493,-0.256566090135,-0.22667508259,0.41427009529,0.0281949858018,0.456046481049,-0.461903492886,-0.360328253738,-0.137580019485,-0.0951556473226,0.406207114619,-0.248800242196,-0.11802277656,0.270203931427,0.219644429055,-0.0724643725657,-0.334463737961,0.314383220705,0.0862856100435,-0.170151072307,-0.00632907027701,-0.376926206321,-0.408277825304,0.149403699604,0.325139866859,-0.00120925378398,-0.211395602527,0.138202637446,0.28116539629,0.15543690839,-0.260372886662,0.0382838667576,0.31513208139,0.43139910906,-0.21110254167,-0.168390198347,-0.0776836663616,-0.326265058046,-0.420282852681,0.411867959773,0.131944444306,-0.0419510171783,-0.00956455837001,-0.25253011893,-0.137982735665,0.286696873842,0.170595963099,-0.0220668221629,-0.362789417735,0.337352367013,0.203838707944,0.369402800611,0.244147440095,-0.217536945917,0.309015599972,-0.18825601497,-0.36917972518,-0.103110292572,-0.442170410725,0.0666263091721,0.108230833726,0.398979187384,0.483879457159,-0.0898207685981,0.00391547543421,-0.0074786401633,-0.22370930278,-0.0347986978846,0.0537136883151,-0.00217235545226,0.199317344766,0.295644417952,-0.16428674237,-0.098649303653,0.343538409351,-0.356754479061,-0.333126501572,-0.0130864567338,-0.19894132648,-0.051390919156,0.464633394668,0.362708899996,-0.282978287925,-0.200836984117,0.0626055888225,0.0184432736237,-0.401981764367,-0.16618068097,-0.0875888980373,0.203472715246,-0.104984354271,-0.150899817163,0.368506595167,-3.76545220011e-05,0.120090077639,-0.383969492743,-0.255150818439,0.095898514685,0.0633332911318,-0.39527224373,0.353928105259,0.157279607854,-0.376851418329,-0.0900720625123,0.400156142291,0.0910118242914,0.461616700614,0.205077427279,-0.239253455868,-0.0860850834074,0.209349163421,0.381924771847,0.173824723278,0.190517301994,-0.0125200973461,-0.226840408887,-0.326481920146,0.415825430977,-0.203528078709,0.346463718121,-0.267559639059,-0.162303350319,-0.381983517548,0.371658119344,-0.301808243,-0.247832742998,-0.348326829904,0.362384021654,0.142874306087,0.114599497388,0.168297297885,-0.0157439789116,-0.0905891367526,-0.0991746412136,-0.228676609045,0.210863199965,-0.234829255089,0.113380357823,-0.360523963668,-0.071504232146,-0.0963486549426,0.402089987767,0.137133385651,-0.42860857379,-0.168089143269,-0.433411627546,0.378003842646,-0.23661877494,0.237579392055,0.0232219900818,-0.173852551734,-0.340303892041,0.145194345996,-0.225876532159,-0.456486605899,-0.0670475635671,-0.0141354811598,0.17632415198,0.46761025497,0.17824167647,-0.227135868106,0.27212892514,-0.178101483624,-0.170738941727,0.471954770107,-0.0369877724723,0.233392732895,-0.485093330241,-0.29857720552,-0.348204591026,-0.133612117801,-0.3226497819,-0.115814607436,0.440242376309,-0.399700585882,0.146695589026,-0.0759053528753,-0.235257448777,0.158116931075,-0.317186005,-0.166169435434,0.231524639505,0.0315350905707,-0.0761675163606,-0.375320318837,-0.0578477586213,-0.305795234758,-0.284852329129,0.278918430411,0.41929708591,-0.087489724649,0.484059747559,-0.088524996194,-0.0720183240629,0.499358269027,0.274422642745,0.372104460734,0.464414834648,0.47062457649,0.436236475077,0.496354866114,-0.337965918813,-0.44391429684,0.16222824274,0.0410695335925,0.176587816372,0.316424669626,0.209824394852,0.00358712341229,-0.266676388069,0.349411430764,0.117232815136,-0.23427904822,-0.280774644153,-0.269899800676,-0.0471409840924,0.459855144472,-0.205950415229,0.443943420581,0.352070001277,-0.397376494662,-0.433823140317,-0.388104386894,0.0688399792898,-0.486101401411,0.268231898104,-0.48533808599,0.164931231554,0.339016404755,0.292270226097,0.125314994862,-0.30572822375,-0.035878457598,-0.414805366894,0.443063658167,-0.0697251711039,-0.276630791556,0.47270831831,0.496992059193,0.325252962079,0.275083333125,0.208231107161,0.338558871418,-0.469733197602,-0.295816245107,-0.401336679071,0.147626504561,0.389507317844,0.36061818106,0.0289861151519,-0.162646938976,-0.269622463971,0.0603658847533,0.0899250024537,0.0996455793628,-0.14431583025,-0.102736904912,-0.0468878338926,0.272081429557,-0.3179113115,-0.124061044571,-0.078649159267,-0.26150711185,-0.326785447573,-0.111443046104,-0.198047741971,-0.174497377212,-0.490185250614,-0.274084323635,0.273857338458,0.155093011729,-0.0272239006405,0.0832411136695,0.234731305727,0.476249514764,0.197449546572,0.0466696803005,0.283302601995,0.134227800938,0.0490627351103,-0.41520468694,0.0341632064233,0.441199641961,0.371531730871,-0.0239158947416,0.30585197032,0.381597510584,0.242214108416,-0.102948172408,0.301291389624,-0.42505363632,-0.287860547844,0.268541330207,0.29317162604,-0.153218472107,0.488792130211,-0.0911488989529,0.0751891988485,0.372644445855,0.406080432056,-0.206267394843,-0.0804146262301,-0.230960771978,0.341843354608,-0.341398945828,0.335310354448,-0.482726970828,0.347647412613,0.110601056217,0.299257526348,-0.313862301557,-0.168540314389,-0.377573379925,-0.108817268336,0.0546208033795,-0.219164356684,-0.331181152452,-0.334668331108,0.443683067885,-0.480013010826,-0.116717142819,-0.0943493410206,0.164605338709,-0.00170964068029,0.481810462231,-0.0494197247914,-0.274802383796,0.489765706413,0.273928124685,-0.443191475093,-0.249542248329,0.459825062399,-0.14182030811,0.432551241865,-0.213474365526,0.242362812488,0.490952925627,-0.019094926574,0.311818578572,-0.214629767885,0.289374066676,0.000549323945496,0.345341041129,0.295632695995,-0.0494683430298,0.403602956792,0.406490596163,0.0335626511548,0.3886069769,-0.493452955635,-0.221613972344,0.0244475848384,0.00404090850962,0.303899966512,0.0821066184127,0.00749936199392,-0.479045223323,0.201878735315,-0.493867706793,-0.446269509808,0.0974781487158,-0.202503558462,0.05339569081,0.40624076595,-0.366566722379,-0.485547946744,0.429246030923,-0.00137556182367,-0.48071711907,-0.0629856945108,0.320387651252,0.212977333899,0.100357697559,-0.0693166767343,0.344531242941,-0.377190912904,0.0668139598812,-0.30493216776,-0.012234983818,-0.0578074424485,0.103140392401,-0.155323504093,0.490850967767,-0.109347295862,0.246713800633,-0.0181461547238,-0.409046552168,-0.159915532089,0.116299172569,0.309225903662,-0.380029966004,0.480531212988,-0.00848277257777,-0.238681163786,-0.359149385355,0.28560384925,-0.385466550323,0.00936663033828,0.190133426028,-0.15037305607,-0.0927466986659,-0.0499172179354,0.189017094169,0.0146784941334,-0.435835163424,-0.0520908506849,0.205958482028,-0.180999490381,0.443350213217,-0.210556798708,-0.20080748012,0.115526284007,0.220476317911,0.479685107076,-0.00795260649772,-0.04039232118,0.0826342917754,0.0472489505654,0.0727272321984,0.252906796958,0.101803044787,0.226611930735,0.24057354824,0.431374528926,0.109930454533,0.450974972987,0.300686920146,0.278838881057,0.166430280712,-0.324417877262,0.0673328920686,0.0319916308996,-0.445475045061,-0.237149030284,-0.0962128846616,-0.168173447868,-0.148069452786,0.162826198855,-0.0779816969548,0.295248914626,-0.0208473468764,-0.445440677944,0.0761015045925,0.188529552126,0.481203825064,0.127563079959,-0.337778267232,-0.002382509661,0.1200432522,0.137929456601,-0.483293905821,-0.185472377457,0.0194549480656,0.0299032036921,0.396569763029,-0.186394173496,0.489040409016,-0.0781427207884,0.361088124018,-0.485515714324,0.0154429605978,0.463220805669,0.434071231066,0.139277496934,-0.0729891185132,0.00725733761631,-0.444124317429,0.357494936111,0.399542873785,-0.472252462716,-0.202494330064,-0.497422066011,-0.169037658572,-0.0623320568658,-0.253326747155,-0.156565145079,-0.441561008296,-0.166751207211,-0.212720071133,-0.46720403826,-0.381744958433,-0.282183727234,0.36702933311,-0.277425791504,0.209911939877,-0.275288318973,0.184864656898,0.176612814836,0.249181800619,-0.000778967964498,0.280758667009,-0.127210143137,-0.235661500967,0.0805575849103,-0.23306217039,0.347842669931,0.191139165272,-0.382838385907,0.320246857516,-0.340258002123,0.242150991362,0.204418218081,0.191087331754,-0.429676571429,0.355823248257,-0.23850369051,-0.208700193452,-0.2106455415,0.461367428146,-0.352273181553,-0.225808182851,0.472713188308,0.0631205342752,0.455794036377,-0.246501902263,-0.333980708158,-0.430348814391,-0.101664691591,0.487652537129,-0.16352001438,-0.420484859301,0.39844844743,-0.110818034632,-0.468853507934,0.37311201969,0.468820567131,0.291666966,0.438928563329,-0.180249030933,-0.380769047251,0.106849531607,0.454468572937,0.28952131551,0.17292750733,-0.324769852267,0.0343714761981,-0.456121321671,-0.275805931938,0.236748946696,0.254805478925,0.158890936082,0.431200061459,0.331599443226,-0.258503287483,-0.157101026198,0.149176378199,0.297484148768,-0.410886089683,0.189111374488,-0.341549613503,0.16880686977,-0.349144570373,-0.325241752927,-0.078052107923,0.066701336954,0.181140312792,0.180472478408,0.168117235919,0.407657851566,0.231997460206,0.10105352742,0.484800263194,-0.3068829927,0.0403976159877,-0.380099757517,0.217894792323,0.286318023022,0.261241735103,0.210191648371,0.0588452114255,-0.482200261452,0.254712585688,-0.435380028937,0.111834289795,-0.410285917926,0.244989909595,0.207595145501,0.437159843929,0.457423621029,0.0436628724744,-0.428740937011,-0.313061614103,0.329122991892,-0.0829830645062,0.171577879368,0.393874999206,0.229032509241,0.243139547603,-0.147880884996,-0.362094114318,-0.289673759651,-0.0890120382365,0.275598197756,0.347577962393,0.100247216564,0.131642330672,0.241604741992,-0.4801502253,-0.287151781004,0.340854645135,-0.376847349878,-0.0607547068268,-0.404164344299,0.155348822852,-0.0102746993248,0.4180238759,-0.301703958092,-0.0692966602725,0.444310411288,0.475535292346,-0.492616525325,0.00896640110649,0.437484374088,-0.322071201357,0.0800836731724,-0.249674816799,-0.494211425451,0.0903029849795,0.46261387044,0.371030603886,0.243245974572,0.0519833537839,0.00716179296998,0.245049257066,0.250929819092,0.460531882677,0.213957774715,0.0353135147359,0.452175474358,0.313015712677,-0.47874555642,0.373486517779,0.101119824277,0.402361354211,-0.318506187552,-0.415416186536,0.451847833872,0.079566638305,-0.0392231924854,0.227710992545,-0.164283550312,0.320939902758,-0.34803488819,-0.388177831887,0.186376688927,-0.201065827436,-0.073259461672,-0.475724487556,0.497066685,-0.277558404259,0.353413004965,0.114314751554,-0.237685185315,-0.106522175765,0.127667042074,0.346492214248,-0.147270373452,-0.213186567168,0.251633550372,0.317253641108,0.458434307999,0.384138247059,0.402453182113],[-0.16620446836,0.291318714625,0.239075746913,0.432322947822,0.18168704099,-0.408070654299,0.0395456823362,-0.136143460704,0.399801499525,0.0607992003366,0.253625730419,-0.206030581733,0.390460668969,0.00251491365437,0.172238147207,0.113676018188,0.153949016016,0.325550392326,0.329162282648,0.0743534580164,-0.143646909451,-0.249147034041,0.122271848052,0.057406310241,0.103160514788,-0.324815496913,-0.413942656783,0.285708715356,-0.473567158071,-0.104789177442,0.182878553696,-0.441361273128,0.394267885724,0.0649632814665,0.131767161507,0.0864174791395,0.425720748302,0.467154036804,-0.125244619991,0.467170345082,0.240771568281,-0.414954031302,-0.492122199235,-0.00125922076644,-0.245181794144,-0.337548259777,0.366085860038,-0.483370724825,0.177657717213,0.441096462434,-0.111938069237,-0.165451749453,0.159221223846,-0.195944494142,-0.23167425583,0.0726627501386,-0.15178361678,0.466260201358,-0.0892312965478,-0.043558653801,0.346141005421,-0.134761526699,-0.210296676764,0.0442066956215,-0.0987651527691,0.493831070753,-0.313960772261,-0.0578498811109,-0.210184833148,0.132340479442,-0.429752806142,0.246608632502,-0.492440772018,0.383048515137,0.407650365615,0.141965515243,-0.28677458631,0.339168668361,0.486297791938,0.0312955271338,-0.360798681484,-0.497145695073,0.354741586108,-0.396179503262,0.417958476068,-0.45850262467,-0.430332941835,-0.467110355244,0.48416247686,-0.0484789941418,-0.130920659273,-0.359167094779,0.287491697234,0.319839521961,-0.268234103717,0.261825781781,0.220502072099,0.162742167383,-0.0722305782606,-0.227458699064,0.336256626792,0.0359215435796,-0.106617545763,-0.26995923625,-0.0893256087951,-0.226315873806,-0.14334875864,-0.481440129919,-0.251317012843,0.0982443218608,0.230055499626,-0.418269710835,-0.242318124215,0.280855391374,0.211929818352,-0.403979309468,-0.343836817637,0.36425452485,-0.11312984014,0.444247966846,-0.187430693967,0.491232111429,0.144217120653,0.307822439865,0.0387529951053,-0.487349663024,-0.307527134531,0.0885100348905,-0.454961958327,-0.277113675389,-0.207418353891,0.2137504717,-0.320197927038,0.0213103923237,-0.146978433543,0.358275790722,-0.135583494163,0.293199612245,0.460166149796,-0.281189885918,-0.477520914727,-0.201366362873,0.164250245242,-0.00499581555785,-0.0475637357235,-0.222682815287,0.371298104249,0.127992117483,-0.262161775933,-0.269641220198,0.420747657508,0.398897417841,-0.495000415914,0.06582493321,-0.250658600693,0.37400947364,-0.423738396263,0.462851815695,-0.101068697443,-0.181115733318,-0.417481536722,0.462965671103,0.171103916091,0.00923890550115,-0.335702954419,0.267702749088,0.348691723433,-0.361441170455,-0.389207014899,-0.452835572336,-0.248491538649,0.255684842441,-0.212186246003,0.476641312849,-0.281115150875,0.234992947444,-0.231573573659,0.00242482377433,0.18662661051,0.130193976848,-0.497598078088,0.33931561723,-0.133514703295,0.399605818028,-0.0578180556412,-0.199572254817,0.248239597916,0.469321765093,0.442289247694,-0.0124010384996,-0.233544795866,-0.250621153259,0.424014519981,0.190578608701,-0.0321222010421,-0.494362234585,0.299210784291,0.127267863503,-0.206497151497,0.131080736681,-0.097548900311,0.444547223806,-0.158897364472,0.342539785967,0.160151000421,-0.45626447987,0.313911038784,-0.0620074131155,-0.0516430656589,-0.299341651242,0.335106593329,0.237724928483,-0.357197255606,-0.0462229397875,-0.155361610464,-0.472697957447,-0.0407584478309,-0.223038506538,0.490120078465,0.0925811348783,0.145738880825,0.204727748988,-0.240924746805,-0.162558307906,0.073305758552,-0.475208304902,-0.424685029015,-0.0926549427767,-0.294543122398,0.257540539702,-0.482328985782,0.174758624627,-0.18386209182,0.319697234981,-0.423669335159,-0.319891017171,0.269203147711,0.230330909687,-0.363720202075,0.245650349462,0.0714840499847,-0.399073567106,0.0125247871678,0.129021042538,0.348055424703,-0.254413411551,0.49431621736,0.351126797617,-0.474106597493,-0.0652422846497,-0.386845282491,0.155956706216,-0.013867065841,-0.181044638255,-0.494226106218,0.359881033045,-0.0174781504889,-0.0211038716615,-0.490442713834,-0.242889881486,-0.010005425178,0.185399907115,0.462193418831,0.0724615068863,0.459180981618,0.440321496326,0.380648780891,-0.34110466969,-0.414541791797,0.288545962705,-0.0737489195477,-0.22031064862,0.372010446029,0.310583326071,0.0904403355963,-0.409497118009,0.243831857035,-0.017264780473,0.467228393333,0.292542245767,-0.253904137943,-0.491637872404,0.319067167081,-0.217390146737,-0.496493603351,-0.234203879154,0.458118497262,-0.440250223031,-0.381281129881,-0.173016309465,-0.415004968194,0.469020742615,0.155522589697,-0.32787056656,-0.486947786871,-0.159746814312,-0.191368368263,0.167936346968,-0.0484762430876,-0.467896048692,0.418828999859,-0.450417530125,-0.061107726947,-0.31769445517,0.252496416936,0.35611563023,0.335203021982,-0.255023630444,-0.13136095738,-0.47830747162,0.0714085593017,0.25739771371,-0.29150068626,-0.106652353228,-0.0504067289061,-0.221634681028,0.120640122336,0.494256364578,-0.30556805435,-0.487641503568,-0.190956659106,-0.409077854763,0.16552452248,0.446766715894,-0.164967171653,-0.221824108701,0.226081746319,-0.216878487888,0.104969086758,0.29287403882,0.107581567258,-0.0679015179092,0.254868318365,0.144105377777,-0.394670624175,-0.109376506549,-0.209785340863,-0.0404028738586,-0.291595284197,0.0854977297808,0.0481319995225,-0.196925503021,0.441287016056,-0.163347218817,-0.0862078028465,-0.439327179442,-0.0366440831561,-0.0212114491147,-0.383064826785,0.339446558543,0.46326735563,0.236297599798,0.0225315737075,-0.424219827384,-0.0576470272756,0.207002960163,0.231188246245,-0.399242075617,0.0969267934044,0.229013895827,0.316012644082,-0.13317620081,0.413721529699,-0.109476907367,-0.0740683573795,0.0968703888911,-0.376470608042,-0.141308881291,-0.371763593078,0.215781320811,0.361280171365,0.135172435267,0.187624553513,0.320321036928,0.433107445364,-0.244396091772,-0.0409676722681,-0.16349264038,0.0101915360728,0.273102365099,0.217640716131,-0.156961614151,-0.466210280755,0.454989224273,-0.163782419728,-0.419054928341,-0.0753125042604,0.243398837725,-0.333285972424,0.334686313606,0.169484701542,-0.173348645593,-0.251036250181,0.365781158502,0.36815446512,0.316634370423,0.241624567144,-0.210297312305,-0.434506842055,-0.462162986468,-0.0851028345492,-0.22085364869,0.314857018516,-0.459490630752,0.225574125146,0.336611501035,-0.331282422583,0.481829136892,-0.0972662499014,-0.419499494333,0.339079389861,-0.402768026859,0.306161450852,-0.316808497451,-0.0959971697236,-0.251778006212,0.176902985432,0.0639871534029,0.0270291518792,-0.330050273034,-0.230747247439,-0.178281040417,-0.0869980753752,0.117389030986,-0.177098214728,-0.365436903799,0.275481125397,-0.127553124388,0.16028016429,0.285276415371,-0.0954572153182,-0.375593131208,0.12053356662,0.180045479801,-0.462838735034,0.170740197495,-0.230701558344,-0.25154014626,0.0578966622567,-0.117021223651,0.0875890337159,0.464705805191,0.319702187508,-0.0893597025693,-0.381277835163,-0.462263262209,0.311953609559,0.163816948599,0.284699618906,-0.0290422980804,0.0293318841987,-0.326388651931,0.11879213295,-0.182410321561,0.36981519682,-0.371322423468,-0.393022874648,0.291750024033,-0.254905815662,0.298849976952,-0.18725766116,0.0125675347768,-0.194288975899,0.322494704408,-0.0915024218419,-0.0180818144484,0.124551342719,-0.0593796731516,0.0711931092909,0.197872793198,0.147038294876,-0.470214906194,-0.275509834334,0.394088577202,-0.0824758658426,-0.217770303736,0.176891943585,-0.0746167727017,-0.379706136185,-0.190470495999,0.349387903467,0.340953674334,0.102297397397,0.0470960739864,-0.0368857828438,-0.0816423313044,0.476184011148,0.0610750646158,0.289411108291,0.487860472585,0.455148071098,0.389956070705,-0.170996606645,0.235622747984,0.474919517924,-0.346981554701,0.441097298104,0.125912136362,0.393160509501,0.454638294886,-0.413855247217,-0.206819160773,0.0626525631743,-0.155836536382,-0.440034989696,-0.146691690427,-0.352264308261,-0.195774658202,-0.466283402951,0.338195498509,0.412689517127,0.135715484499,-0.168479070706,-0.399310935313,0.128237682769,0.279403022873,0.370414790216,0.281322089738,-0.0809662735145,-0.171765127915,-0.0909979198733,-0.461508840636,-0.0491936134623,-0.406910241395,-0.200744781928,-0.287099342944,0.220586008755,0.207044170848,-0.368214510154,0.27077660659,-0.367299689019,-0.470565147846,-0.315835762958,0.410064960773,-0.103017204427,0.398894654859,-0.373737102563,0.0537748769618,0.411635315741,-0.332200761059,-0.348766513491,-0.237696455602,0.424619200157,0.0631522181827,-0.118002274228,-0.192211297662,-0.1007381278,0.445557807722,-0.0511454496129,-0.482913583006,-0.0874931331541,0.251238791577,-0.0691923718615,-0.327533967375,-0.145679455966,-0.0977294711037,0.0775664571746,0.495251509589,0.490817123378,0.483421882777,0.343318029457,0.274847061546,-0.0427044830883,0.00495266060741,0.190768233219,0.0211993594629,-0.00282848906113,-0.105004042936,0.477171332206,0.342038395772,0.249480751746,0.157822890554,-0.00311758626422,0.0626326003006,-0.311315477246,-0.0742157762787,0.364222948484,0.478694113962,0.301320725465,-0.342938384353,0.213187024415,-0.27963707099,0.139135716114,-0.44190009722,0.402298884343,-0.131769451135,-0.382478368139,-0.468009220483,0.346965197221,-0.447605569111,-0.466580191192,-0.239751611917,-0.348766328715,0.166033594187,-0.313737230119,0.076098633293,0.492979369139,-0.0700663219073,0.0822204018875,-0.446120033203,-0.422709483258,-0.17496304813,-0.292116740979,-0.272610281278,-0.0839305404269,0.186100872374,0.486926055535,0.22707562194,0.0870940393233,-0.144713788339,0.398257250729,-0.283390881851,0.296892568843,0.113777339501,-0.296318677294,-0.282902131737,-0.053700345776,0.424322698518,0.0455945614205,-0.289514366366,-0.476957346755,-0.0612051990274,-0.42888532709,0.494509700477,-0.115916940391,-0.113946096088,0.247549247649,0.127327662093,-0.368384854949,-0.0543671111927,0.104465963817,0.179435538371,-0.229855946851,-0.186768934498,-0.235748511573,-0.479964260602,-0.379844376349,0.197666821358,0.198149381792,0.183002736171,-0.302968240039,-0.468420077347,0.260993616359,0.298345585196,-0.198972054285,-0.230402607271,0.279627335271,-0.298320392332,-0.386393538138,-0.451682495962,0.373252127125,-0.476505943925,0.421850999881,0.390037359466,-0.0119308826501,-0.111643132272,-0.163268835106,0.473418668144,-0.0709660563473,0.487832209865,0.274688014251,-0.0912621929831,0.253798613141,-0.0137219265961,-0.419731973539,-0.245060117666,-0.20103135079,0.207616459516,0.324233965485,0.326548146048,0.0758017022712,0.240555027261,0.20907641683,-0.258658702938,-0.17192120184,0.0270765955255,0.149966708514,0.0360170459321,-0.105304329805,-0.0877457037544,-0.31639184123,0.330774329068,-0.401503872591,0.431732485623,0.458579726415,-0.479346258838,0.399836571889,-0.492710867701,-0.296238979583,0.211996636639,0.262041526024,0.0366195581025,-0.277260321043,0.317209569521,-0.464347256557,-0.470904780178,0.483399507956,0.255721320457,0.00657607857947,0.0131147569132,0.139885907404,0.000606443464481,-0.399745830602,0.359373873014,0.203915776098,0.480041010382,-0.18198402397,-0.0503486529138,0.118073578323,-0.131046717521,-0.0460389265256,0.370218190124,0.0319310192978,-0.31284034012,0.47064205036,-0.307050296024,0.259723382892,-0.084256798185,0.220712929296,-0.0493020775348,0.364830429312,-0.22968678215,-0.357789061725,-0.057924589378,0.420606264037,-0.296386981731,-0.265545549837,-0.208348463099,0.279542744433,-0.309524526661,-0.026411255111,-0.0140810097479,-0.327390707027,-0.264753310682,0.0769467024071,0.220930041513,0.0164030000579,-0.444570423348,0.132753074907,-0.45616862202,-0.117245192519,-0.10447734857,0.197615029244,0.299132796988,0.203306629327,-0.214990671605,-0.368637828058,-0.283611987755,0.340555394387,0.418091805758,0.340309001287,-0.187323947432,-0.361431311137,0.355459646415,-0.170567446401,-0.34803277076,-0.257697262374,0.0577260747756,-0.143696532328,-0.397926357684,0.0989543953119,-0.0258500451835,-0.195065622267,-0.0337700982022,0.0416937794773,-0.214037670943,0.0597070116897,-0.44056647534,0.291319379265,0.0960940875613,-0.294471722042,-0.136184920527,-0.451392068362,-0.0131932906914,-0.332115854819,0.257468391928,0.105145500926,0.260147393786,0.102651964979,0.342260620967,0.040004918761,0.174060574457,-0.154748189657,0.0672954141752],[-0.0825991737942,0.41043798796,0.409219286785,-0.232597171562,-0.122157972911,-0.00243891818951,-0.438426111422,0.25417376468,-0.133055087146,-0.29269718944,-0.0533710939524,-0.376453026863,-0.105598522347,0.228077036076,0.137294916222,0.471960843721,0.0645003154294,0.279182414123,-0.417783216112,0.447978754209,-0.364818189026,-0.214649043947,0.479125514706,0.497953149949,-0.0957710886123,-0.368623385658,0.468766594915,0.158586756513,-0.106852595439,-0.454339288546,0.214346213647,0.0874021210021,0.301180540215,0.288931431735,-0.162670829263,0.415565954164,-0.355805584004,0.347378323159,0.115552333014,-0.168516298074,-0.336904666517,0.167939185036,-0.119255540825,-0.0596407382066,-0.140967510806,-0.358065185993,-0.135159675057,-0.405957204289,-0.000168149172655,-0.461694448688,-0.165948448398,-0.332801107978,0.391526751931,0.281066450131,-0.458303308135,-0.167916948973,0.438876653636,-0.108985137139,0.267453010509,-0.19411468751,0.12236267434,-0.387641465204,0.49990454366,0.276945248328,0.186113034835,0.145908685926,0.405129881477,0.114053106434,-0.145836040478,-0.00350064736012,-0.213069631495,-0.416197487508,-0.184615084473,-0.384305612075,0.0964782451894,0.464992546581,-0.176455359986,-0.0256355046716,0.461293950246,0.498144073142,0.136974447105,0.388459077315,-0.0420098644388,0.452068398767,0.128799679389,-0.240999007912,-0.0120348865385,0.00557936764358,0.0828877753972,0.0563248533054,-0.353733542046,0.174002533628,0.479917967209,-0.157878550275,-0.140274156061,-0.451936024154,0.31132236499,-0.092813586031,0.245942776813,-0.377103980168,0.130214640752,-0.440888556277,-0.415248016568,0.401978565083,-0.256394632238,-0.120905499386,-0.409344878361,-0.253615776168,-0.332032387057,-0.455660063105,-0.179614510923,0.115149219874,-0.331469259017,-0.141124574849,-0.493637343353,0.491794013137,0.0946595958238,-0.151382500343,0.476962626655,-0.249084086387,-0.291338004741,0.0335456579221,0.405705596716,-0.382189916527,0.3606329833,-0.182834295363,-0.393480516834,-0.491507958785,0.169912998925,-0.0611144880395,-0.324775470017,0.38120705385,