[[-0.0287601259653,-0.364609225915,-0.02079799036,0.32910102336,-0.43375315669,-0.360775837342,0.456178472046,0.0506484165523,-0.475558240911,0.157169620185,-0.337159272007,0.435767617186,-0.0107915761697,-0.0817879536573,0.329310751353,0.476595803853,0.17435703268,-0.345056711947,0.182828854029,0.252183196852,-0.156966163066,-0.339668552303,-0.0365866898041,-0.395057791199,-0.238827731215,-0.340520360987,-0.348653580469,0.204768382464,0.265131489953,-0.34979500233,-0.169086965937,0.235571943989,0.37707511783,-0.0201274042889,0.415617787386,-0.226823651327,0.266278433649,0.295869152507,-0.47329225057,0.0973681733355,-0.152487317631,-0.399019488277,-0.437510258902,-0.203411672447,-0.310633743812,0.464433828512,0.237314380605,0.431848702034,0.222105859748,-0.0341224266453,-0.332481539553,0.338666569877,-0.133308634418,0.0667813620987,-0.370035353181,0.317156178877,0.21541833322,0.256028395529,0.46280089887,-0.355912312781,0.297694054797,-0.189317132113,-0.14639609282,0.170639370601,-0.0764909088291,-0.279012397331,-0.0312540163756,-0.167507270131,-0.33434868412,-0.214304465944,0.174253916694,0.126337141053,-0.0623169923305,-0.0318661962871,0.405791345213,0.292103306268,0.450089564267,0.340784787565,-0.387765239535,0.252239773235,0.470153532843,-0.445529944624,-0.270371504814,0.338450911388,-0.0345939818507,0.488212687484,0.0683863158097,-0.465211393647,0.237630290889,-0.0822052005218,-0.0422608277556,-0.360823421846,-0.433019737635,0.460730161577,-0.00532947985802,-0.273642339497,-0.123891627426,-0.455224575788,-0.2460947621,-0.112936417602,0.0415209893162,0.452350087145,0.442447192574,0.272468319091,-0.0666557083904,-0.132673784084,-0.463693775297,-0.390400756487,-0.283809307762,0.442446084399,0.198306826194,0.0822953401209,-0.166092295994,0.319970767601,0.279231403278,-0.364725397737,-0.190398246033,0.115345841747,-0.250948051863,0.0198220054182,0.318619007938,-0.269130391279,-0.330173520424,0.344598591461,0.171689801033,-0.477792225755,0.313529142393,0.429882312701],[-0.393574655901,-0.210566712843,0.262419098806,-0.445630178776,0.195273710708,-0.498443313028,-0.0334529445805,0.252369865911,0.498816977457,-0.256185140281,-0.390910750551,-0.371478576618,0.483427738458,-0.1241844766,-0.101942768525,-0.0371148886754,-0.277253247322,0.458196087026,0.188685932257,-0.481169388366,-0.495011015711,0.197943832559,-0.121713562019,0.0953615688447,-0.352072600628,-0.268374216528,0.493884230806,0.399061668289,-0.0725022388592,0.187609366127,-0.0888050684926,0.282170405941,0.0212711366929,-0.223897519071,-0.315481685239,0.192711847283,0.350984584346,0.391034048594,-0.0918070148283,-0.0950471676279,0.13644396828,0.00221808439768,0.397759276176,0.0795940382491,-0.110264864971,-0.329467526714,-0.360041819799,0.387423881759,-0.110188330571,-0.380437230958,-0.387173080817,0.390358799839,0.0902163682761,-0.0354143744778,0.196726922633,-0.313221216279,-0.37714109995,0.192584307805,0.417174105638,-0.127764175195,0.348963247323,-0.459876428266,-0.0637861265032,0.392114712223,0.384836081503,0.179326188168,-0.278263080492,-0.449841172242,-0.388453920445,-0.134912505706,0.403545930858,-0.160727151177,0.3512626435,0.229162311172,0.275846232891,-0.0836552396895,-0.107198148509,0.10170388447,-0.27601354285,-0.176661780169,-0.352929186963,0.15200893236,-0.306305235781,-0.00862787045153,0.163062692456,-0.266417221593,0.168023546186,-0.157395890561,-0.26263882699,-0.47326076759,0.220678163682,0.153120946298,0.0434815657255,0.110713469323,0.301926025887,-0.367520225041,0.32886949338,-0.0178387623409,-0.0205952261237,-0.363680258876,-0.0379994111127,-0.0406658184023,0.283297920287,-0.0714952390624,0.0456241832565,-0.211654273894,0.277500619239,0.215179326704,0.0936241819001,0.309294642474,-0.139530587675,0.0946270526421,-0.154942571742,0.340219248103,0.40019067454,-0.334979912113,0.164108516077,0.0459102484908,0.225358379603,-0.341107311782,-0.478790163523,0.285621660249,0.195893192963,-0.468136616458,0.2450277941,-0.45490183663,-0.101114274344,-0.397751835393],[-0.121429426223,0.245709232514,-0.140010302766,-0.0299778580668,0.216069927726,0.267006772321,0.287944060638,-0.338063557302,-0.347836238788,0.258184110323]]